<?xml version="1.0"?>
<opencv_storage>
<stage2>
  <maxWeakCount>10</maxWeakCount>
  <stageThreshold>-1.8206207752227783e+00</stageThreshold>
  <weakClassifiers>
    <_>
      <internalNodes>
        0 -1 2430 4.5606892555952072e-02</internalNodes>
      <leafValues>
        -7.4852472543716431e-01 3.1797236204147339e-01</leafValues></_>
    <_>
      <internalNodes>
        0 -1 12921 -1.1208870261907578e-01</internalNodes>
      <leafValues>
        6.0401976108551025e-01 -3.6870723962783813e-01</leafValues></_>
    <_>
      <internalNodes>
        0 -1 128805 -2.7348345145583153e-02</internalNodes>
      <leafValues>
        4.9908104538917542e-01 -3.1709274649620056e-01</leafValues></_>
    <_>
      <internalNodes>
        0 -1 137816 -3.9681466296315193e-04</internalNodes>
      <leafValues>
        2.3491194844245911e-01 -5.2437973022460938e-01</leafValues></_>
    <_>
      <internalNodes>
        0 -1 11690 3.4304927103221416e-03</internalNodes>
      <leafValues>
        1.3242964446544647e-01 -7.3616617918014526e-01</leafValues></_>
    <_>
      <internalNodes>
        0 -1 11690 -3.5542396362870932e-03</internalNodes>
      <leafValues>
        -6.1929512023925781e-01 1.8231528997421265e-01</leafValues></_>
    <_>
      <internalNodes>
        0 -1 158213 3.1620822846889496e-02</internalNodes>
      <leafValues>
        -2.2604103386402130e-01 5.5678015947341919e-01</leafValues></_>
    <_>
      <internalNodes>
        0 -1 161667 -5.7887500151991844e-03</internalNodes>
      <leafValues>
        6.5666919946670532e-01 -1.6741038858890533e-01</leafValues></_>
    <_>
      <internalNodes>
        0 -1 6526 7.3291696608066559e-03</internalNodes>
      <leafValues>
        1.4603467285633087e-01 -7.6765221357345581e-01</leafValues></_>
    <_>
      <internalNodes>
        0 -1 157329 3.9099720306694508e-03</internalNodes>
      <leafValues>
        7.0755474269390106e-02 -9.0380936861038208e-01</leafValues></_></weakClassifiers></stage2>
</opencv_storage>
