<?xml version="1.0"?>
<opencv_storage>
<stage11>
  <maxWeakCount>20</maxWeakCount>
  <stageThreshold>-1.5899718999862671e+00</stageThreshold>
  <weakClassifiers>
    <_>
      <internalNodes>
        0 -1 38939 4.7117457725107670e-03</internalNodes>
      <leafValues>
        -7.4120080471038818e-01 -3.0327868461608887e-01</leafValues></_>
    <_>
      <internalNodes>
        0 -1 15544 -8.2504570484161377e-02</internalNodes>
      <leafValues>
        4.9206912517547607e-01 -2.7414914965629578e-01</leafValues></_>
    <_>
      <internalNodes>
        0 -1 14409 3.4691959619522095e-01</internalNodes>
      <leafValues>
        -1.5559725463390350e-01 4.7615864872932434e-01</leafValues></_>
    <_>
      <internalNodes>
        0 -1 49351 -7.3659583926200867e-02</internalNodes>
      <leafValues>
        6.0827076435089111e-01 -8.3512872457504272e-02</leafValues></_>
    <_>
      <internalNodes>
        0 -1 161259 5.0880186259746552e-02</internalNodes>
      <leafValues>
        8.5406959056854248e-02 -7.0030611753463745e-01</leafValues></_>
    <_>
      <internalNodes>
        0 -1 158600 4.6721645630896091e-03</internalNodes>
      <leafValues>
        -1.6023851931095123e-01 3.8498318195343018e-01</leafValues></_>
    <_>
      <internalNodes>
        0 -1 71351 5.2524246275424957e-03</internalNodes>
      <leafValues>
        -3.6238944530487061e-01 1.4876267313957214e-01</leafValues></_>
    <_>
      <internalNodes>
        0 -1 159939 -4.5160412788391113e-02</internalNodes>
      <leafValues>
        6.0061872005462646e-01 -1.1082985997200012e-01</leafValues></_>
    <_>
      <internalNodes>
        0 -1 151630 -5.9888977557420731e-03</internalNodes>
      <leafValues>
        4.1652759909629822e-01 -1.2478145956993103e-01</leafValues></_>
    <_>
      <internalNodes>
        0 -1 121238 8.8657718151807785e-04</internalNodes>
      <leafValues>
        9.2798180878162384e-02 -5.5822020769119263e-01</leafValues></_>
    <_>
      <internalNodes>
        0 -1 7448 4.2126709595322609e-03</internalNodes>
      <leafValues>
        -1.5069633722305298e-01 3.3955624699592590e-01</leafValues></_>
    <_>
      <internalNodes>
        0 -1 150764 -5.7523362338542938e-03</internalNodes>
      <leafValues>
        1.8274830281734467e-01 -3.1512358784675598e-01</leafValues></_>
    <_>
      <internalNodes>
        0 -1 5026 -5.8132992126047611e-03</internalNodes>
      <leafValues>
        4.0772974491119385e-01 -1.2963375449180603e-01</leafValues></_>
    <_>
      <internalNodes>
        0 -1 13641 9.5629403367638588e-03</internalNodes>
      <leafValues>
        -1.6962976753711700e-01 3.0653259158134460e-01</leafValues></_>
    <_>
      <internalNodes>
        0 -1 25806 8.8082836009562016e-04</internalNodes>
      <leafValues>
        1.0370354354381561e-01 -6.3179421424865723e-01</leafValues></_>
    <_>
      <internalNodes>
        0 -1 158517 1.2556538917124271e-02</internalNodes>
      <leafValues>
        5.3937904536724091e-02 -7.2022646665573120e-01</leafValues></_>
    <_>
      <internalNodes>
        0 -1 158516 3.2367473468184471e-03</internalNodes>
      <leafValues>
        -1.8547374010086060e-01 3.1015253067016602e-01</leafValues></_>
    <_>
      <internalNodes>
        0 -1 151806 6.7327823489904404e-03</internalNodes>
      <leafValues>
        -1.1967287212610245e-01 4.8617616295814514e-01</leafValues></_>
    <_>
      <internalNodes>
        0 -1 20591 3.6211326718330383e-02</internalNodes>
      <leafValues>
        5.7574540376663208e-02 -9.5897883176803589e-01</leafValues></_>
    <_>
      <internalNodes>
        0 -1 89803 -9.3368552625179291e-03</internalNodes>
      <leafValues>
        5.6015026569366455e-01 -1.0216484218835831e-01</leafValues></_></weakClassifiers></stage11>
</opencv_storage>
