<?xml version="1.0"?>
<opencv_storage>
<stage15>
  <maxWeakCount>22</maxWeakCount>
  <stageThreshold>-1.3334089517593384e+00</stageThreshold>
  <weakClassifiers>
    <_>
      <internalNodes>
        0 -1 71404 2.5020468980073929e-02</internalNodes>
      <leafValues>
        -7.0690464973449707e-01 -2.5773194432258606e-01</leafValues></_>
    <_>
      <internalNodes>
        0 -1 18022 -1.5785717405378819e-03</internalNodes>
      <leafValues>
        1.6969507932662964e-01 -2.4920323491096497e-01</leafValues></_>
    <_>
      <internalNodes>
        0 -1 144759 -3.2800212502479553e-03</internalNodes>
      <leafValues>
        -5.1669150590896606e-01 6.9006599485874176e-02</leafValues></_>
    <_>
      <internalNodes>
        0 -1 18027 2.0052064210176468e-03</internalNodes>
      <leafValues>
        -7.9896107316017151e-02 3.6834782361984253e-01</leafValues></_>
    <_>
      <internalNodes>
        0 -1 152809 2.3889856413006783e-02</internalNodes>
      <leafValues>
        4.4198352843523026e-02 -8.9031428098678589e-01</leafValues></_>
    <_>
      <internalNodes>
        0 -1 161649 2.8484619688242674e-03</internalNodes>
      <leafValues>
        -1.1174823343753815e-01 4.5314407348632812e-01</leafValues></_>
    <_>
      <internalNodes>
        0 -1 158054 -2.1565638482570648e-02</internalNodes>
      <leafValues>
        2.9809871315956116e-01 -1.8408726155757904e-01</leafValues></_>
    <_>
      <internalNodes>
        0 -1 31375 -9.8027236759662628e-02</internalNodes>
      <leafValues>
        3.9850217103958130e-01 -1.1321806162595749e-01</leafValues></_>
    <_>
      <internalNodes>
        0 -1 9039 -4.1525526903569698e-03</internalNodes>
      <leafValues>
        -6.8286782503128052e-01 6.2873601913452148e-02</leafValues></_>
    <_>
      <internalNodes>
        0 -1 7586 -3.3209323883056641e-02</internalNodes>
      <leafValues>
        -9.5546716451644897e-01 3.6090072244405746e-02</leafValues></_>
    <_>
      <internalNodes>
        0 -1 11409 -8.7313391268253326e-02</internalNodes>
      <leafValues>
        -9.2849785089492798e-01 3.0073523521423340e-02</leafValues></_>
    <_>
      <internalNodes>
        0 -1 94236 -2.5390046648681164e-03</internalNodes>
      <leafValues>
        1.2129718065261841e-01 -2.7712455391883850e-01</leafValues></_>
    <_>
      <internalNodes>
        0 -1 34 4.6887211501598358e-03</internalNodes>
      <leafValues>
        -1.3923273980617523e-01 2.8528293967247009e-01</leafValues></_>
    <_>
      <internalNodes>
        0 -1 5099 -1.4899721369147301e-02</internalNodes>
      <leafValues>
        2.7588284015655518e-01 -1.6200177371501923e-01</leafValues></_>
    <_>
      <internalNodes>
        0 -1 147541 -3.4578420221805573e-02</internalNodes>
      <leafValues>
        2.4650476872920990e-01 -1.5274897217750549e-01</leafValues></_>
    <_>
      <internalNodes>
        0 -1 151715 6.4670182764530182e-03</internalNodes>
      <leafValues>
        -1.3609607517719269e-01 3.0662512779235840e-01</leafValues></_>
    <_>
      <internalNodes>
        0 -1 15050 1.1484691873192787e-02</internalNodes>
      <leafValues>
        -1.7221768200397491e-01 2.2727321088314056e-01</leafValues></_>
    <_>
      <internalNodes>
        0 -1 72925 -2.0209018141031265e-02</internalNodes>
      <leafValues>
        2.4142292141914368e-01 -1.6061647236347198e-01</leafValues></_>
    <_>
      <internalNodes>
        0 -1 60698 6.2429521232843399e-02</internalNodes>
      <leafValues>
        4.5694991946220398e-02 -7.9573529958724976e-01</leafValues></_>
    <_>
      <internalNodes>
        0 -1 109255 -9.7864773124456406e-04</internalNodes>
      <leafValues>
        -3.6594501137733459e-01 9.1527350246906281e-02</leafValues></_>
    <_>
      <internalNodes>
        0 -1 38928 2.9212053050287068e-04</internalNodes>
      <leafValues>
        1.0407458245754242e-01 -3.3845689892768860e-01</leafValues></_>
    <_>
      <internalNodes>
        0 -1 102224 -1.3502195477485657e-02</internalNodes>
      <leafValues>
        -7.7409511804580688e-01 4.4870451092720032e-02</leafValues></_></weakClassifiers></stage15>
</opencv_storage>
