<?xml version="1.0"?>
<opencv_storage>
<stage1>
  <maxWeakCount>11</maxWeakCount>
  <stageThreshold>-2.0212464332580566e+00</stageThreshold>
  <weakClassifiers>
    <_>
      <internalNodes>
        0 -1 110 5.7790495455265045e-02</internalNodes>
      <leafValues>
        -8.4261322021484375e-01 2.6666668057441711e-01</leafValues></_>
    <_>
      <internalNodes>
        0 -1 280 1.6993798315525055e-02</internalNodes>
      <leafValues>
        -7.6763951778411865e-01 1.5389126539230347e-01</leafValues></_>
    <_>
      <internalNodes>
        0 -1 231 2.0926307886838913e-02</internalNodes>
      <leafValues>
        -6.0196554660797119e-01 2.5850486755371094e-01</leafValues></_>
    <_>
      <internalNodes>
        0 -1 37 2.7040945366024971e-02</internalNodes>
      <leafValues>
        -4.7778579592704773e-01 3.8273975253105164e-01</leafValues></_>
    <_>
      <internalNodes>
        0 -1 268 8.7733175605535507e-03</internalNodes>
      <leafValues>
        -5.8959871530532837e-01 1.7873707413673401e-01</leafValues></_>
    <_>
      <internalNodes>
        0 -1 61 1.3761354610323906e-02</internalNodes>
      <leafValues>
        -4.4578886032104492e-01 1.8404093384742737e-01</leafValues></_>
    <_>
      <internalNodes>
        0 -1 6 4.5396145433187485e-02</internalNodes>
      <leafValues>
        8.3422258496284485e-02 -7.5207328796386719e-01</leafValues></_>
    <_>
      <internalNodes>
        0 -1 278 3.4766551107168198e-03</internalNodes>
      <leafValues>
        5.0186884403228760e-01 -1.5494395792484283e-01</leafValues></_>
    <_>
      <internalNodes>
        0 -1 39 3.7663146853446960e-02</internalNodes>
      <leafValues>
        1.5612035989761353e-01 -6.0843360424041748e-01</leafValues></_>
    <_>
      <internalNodes>
        0 -1 309 2.0464926958084106e-02</internalNodes>
      <leafValues>
        -3.6290019750595093e-01 2.1874354779720306e-01</leafValues></_>
    <_>
      <internalNodes>
        0 -1 319 7.3451831936836243e-02</internalNodes>
      <leafValues>
        1.0483096539974213e-01 -7.1556460857391357e-01</leafValues></_></weakClassifiers></stage1>
</opencv_storage>
