<?xml version="1.0"?>
<opencv_storage>
<stage11>
  <maxWeakCount>4</maxWeakCount>
  <stageThreshold>-1.4374145269393921e+00</stageThreshold>
  <weakClassifiers>
    <_>
      <internalNodes>
        0 -1 2676 -270796801 -1464227 823245311 -610410293 -1014239013
        -124928872 -657851397 -67122953</internalNodes>
      <leafValues>
        -9.0646922588348389e-01 -2.0000000298023224e-01</leafValues></_>
    <_>
      <internalNodes>
        0 -1 8029 -41946275 1569734929 -738072177 1999758035 -87047276
        -23574296 1615286975 -572067970</internalNodes>
      <leafValues>
        -7.5926774740219116e-01 1.9206899404525757e-01</leafValues></_>
    <_>
      <internalNodes>
        0 -1 128 1742463855 1334493663 -1743267045 -1252273761
        1277330287 -274755185 998963805 -2017828622</internalNodes>
      <leafValues>
        -8.0998986959457397e-01 3.2522088289260864e-01</leafValues></_>
    <_>
      <internalNodes>
        0 -1 736 -71817374 -2104049 -752512075 -157646637 -607837620
        -102129272 -1433670651 1679837245</internalNodes>
      <leafValues>
        -8.6485952138900757e-01 3.3184313774108887e-01</leafValues></_></weakClassifiers></stage11>
</opencv_storage>
