<?xml version="1.0"?>
<opencv_storage>
<stage8>
  <maxWeakCount>14</maxWeakCount>
  <stageThreshold>-1.3181105852127075e+00</stageThreshold>
  <weakClassifiers>
    <_>
      <internalNodes>
        0 -1 27890 7.6684919185936451e-03</internalNodes>
      <leafValues>
        -4.3081760406494141e-01 4.5121949911117554e-01</leafValues></_>
    <_>
      <internalNodes>
        0 -1 40811 1.6858261078596115e-03</internalNodes>
      <leafValues>
        -2.2889384627342224e-01 4.8489001393318176e-01</leafValues></_>
    <_>
      <internalNodes>
        0 -1 157695 -1.1906211264431477e-02</internalNodes>
      <leafValues>
        6.4532488584518433e-01 -1.6561372578144073e-01</leafValues></_>
    <_>
      <internalNodes>
        0 -1 133476 3.0142992734909058e-02</internalNodes>
      <leafValues>
        -2.2691340744495392e-01 5.3131848573684692e-01</leafValues></_>
    <_>
      <internalNodes>
        0 -1 5096 1.2419911101460457e-02</internalNodes>
      <leafValues>
        -1.7208087444305420e-01 4.9818843603134155e-01</leafValues></_>
    <_>
      <internalNodes>
        0 -1 161700 2.3837399203330278e-03</internalNodes>
      <leafValues>
        -1.3218174874782562e-01 6.3585144281387329e-01</leafValues></_>
    <_>
      <internalNodes>
        0 -1 113923 -2.6252871975884773e-05</internalNodes>
      <leafValues>
        2.6539030671119690e-01 -3.5779547691345215e-01</leafValues></_>
    <_>
      <internalNodes>
        0 -1 160896 3.5968129523098469e-03</internalNodes>
      <leafValues>
        -1.2286882102489471e-01 6.7085427045822144e-01</leafValues></_>
    <_>
      <internalNodes>
        0 -1 59196 2.6940124109387398e-02</internalNodes>
      <leafValues>
        1.2098229676485062e-01 -7.3760908842086792e-01</leafValues></_>
    <_>
      <internalNodes>
        0 -1 115806 -1.8773231422528625e-03</internalNodes>
      <leafValues>
        3.1693321466445923e-01 -2.8379163146018982e-01</leafValues></_>
    <_>
      <internalNodes>
        0 -1 25528 -6.3650198280811310e-03</internalNodes>
      <leafValues>
        3.2357835769653320e-01 -2.8772899508476257e-01</leafValues></_>
    <_>
      <internalNodes>
        0 -1 9479 -4.9789443437475711e-05</internalNodes>
      <leafValues>
        3.0820426344871521e-01 -3.1153023242950439e-01</leafValues></_>
    <_>
      <internalNodes>
        0 -1 141313 -1.1252333642914891e-03</internalNodes>
      <leafValues>
        -4.6737211942672729e-01 2.3220753669738770e-01</leafValues></_>
    <_>
      <internalNodes>
        0 -1 118629 3.2053540053311735e-05</internalNodes>
      <leafValues>
        -3.1808298826217651e-01 2.9068404436111450e-01</leafValues></_></weakClassifiers></stage8>
</opencv_storage>
