<?xml version="1.0"?>
<opencv_storage>
<stage2>
  <maxWeakCount>10</maxWeakCount>
  <stageThreshold>-8.6486780643463135e-01</stageThreshold>
  <weakClassifiers>
    <_>
      <internalNodes>
        0 -1 71444 1.2768711894750595e-02</internalNodes>
      <leafValues>
        -4.4036698341369629e-01 6.0273975133895874e-01</leafValues></_>
    <_>
      <internalNodes>
        0 -1 4201 -2.5238987058401108e-02</internalNodes>
      <leafValues>
        6.0490894317626953e-01 -1.9509951770305634e-01</leafValues></_>
    <_>
      <internalNodes>
        0 -1 67636 -1.2557607889175415e-01</internalNodes>
      <leafValues>
        4.3706563115119934e-01 -2.9297915101051331e-01</leafValues></_>
    <_>
      <internalNodes>
        0 -1 18308 -2.8695177286863327e-02</internalNodes>
      <leafValues>
        4.7480481863021851e-01 -2.2056774795055389e-01</leafValues></_>
    <_>
      <internalNodes>
        0 -1 2268 3.0389871448278427e-02</internalNodes>
      <leafValues>
        -1.7473933100700378e-01 7.1502649784088135e-01</leafValues></_>
    <_>
      <internalNodes>
        0 -1 161673 5.6988159194588661e-03</internalNodes>
      <leafValues>
        -1.7967297136783600e-01 6.0278058052062988e-01</leafValues></_>
    <_>
      <internalNodes>
        0 -1 139080 -7.5860071228817105e-04</internalNodes>
      <leafValues>
        -7.3194241523742676e-01 1.7514139413833618e-01</leafValues></_>
    <_>
      <internalNodes>
        0 -1 161671 -6.4568761736154556e-03</internalNodes>
      <leafValues>
        6.3835024833679199e-01 -1.5852659940719604e-01</leafValues></_>
    <_>
      <internalNodes>
        0 -1 6697 -4.8425993882119656e-03</internalNodes>
      <leafValues>
        4.8489314317703247e-01 -2.3479266464710236e-01</leafValues></_>
    <_>
      <internalNodes>
        0 -1 105402 -4.8267716192640364e-04</internalNodes>
      <leafValues>
        -5.1950109004974365e-01 2.3376628756523132e-01</leafValues></_></weakClassifiers></stage2>
</opencv_storage>
