<?xml version="1.0"?>
<opencv_storage>
<stage11>
  <maxWeakCount>6</maxWeakCount>
  <stageThreshold>-1.2466804981231689e+00</stageThreshold>
  <weakClassifiers>
    <_>
      <internalNodes>
        0 -1 234 -825762825 -137911577 -788020835 -9453421 1389089743
        -413974105 -744490535 -536873549</internalNodes>
      <leafValues>
        -7.7313435077667236e-01 -6.3414633274078369e-02</leafValues></_>
    <_>
      <internalNodes>
        0 -1 8431 -142621709 1031668446 563593421 -516705953 -552741708
        1518985627 -38808992 -844898581</internalNodes>
      <leafValues>
        -5.1777297258377075e-01 3.0380928516387939e-01</leafValues></_>
    <_>
      <internalNodes>
        0 -1 8413 -123536786 -1158233021 1824520527 -1136208229
        2048853508 1202424833 -353493010 -2133609878</internalNodes>
      <leafValues>
        -6.0094988346099854e-01 2.6829648017883301e-01</leafValues></_>
    <_>
      <internalNodes>
        0 -1 2663 -1034457633 1979535443 -1877618273 -213761702
        -826123939 -241563190 512605102 -234751881</internalNodes>
      <leafValues>
        -4.7664666175842285e-01 3.5992848873138428e-01</leafValues></_>
    <_>
      <internalNodes>
        0 -1 1405 -293551646 -523861618 755189171 -1910848627 -341808887
        -1724989301 1266764435 -1068369883</internalNodes>
      <leafValues>
        -7.6564121246337891e-01 2.6769259572029114e-01</leafValues></_>
    <_>
      <internalNodes>
        0 -1 7760 215900148 505300940 -213879907 -2143497764 840565154
        -747991039 -506959140 -944743308</internalNodes>
      <leafValues>
        -6.4057594537734985e-01 2.2930715978145599e-01</leafValues></_></weakClassifiers></stage11>
</opencv_storage>
