<?xml version="1.0"?>
<opencv_storage>
<stage14>
  <maxWeakCount>7</maxWeakCount>
  <stageThreshold>-1.4998054504394531e+00</stageThreshold>
  <weakClassifiers>
    <_>
      <internalNodes>
        0 -1 331 -18906753 -1302534006 2130131 1105708280 550568587
        1956233474 559096207 -545795245</internalNodes>
      <leafValues>
        -8.0333524942398071e-01 -2.6872247457504272e-01</leafValues></_>
    <_>
      <internalNodes>
        0 -1 2040 -1070614825 -8273414 269868511 -935471 1179379955
        1804109200 -356068674 -56656922</internalNodes>
      <leafValues>
        -4.7263565659523010e-01 2.8017339110374451e-01</leafValues></_>
    <_>
      <internalNodes>
        0 -1 65 -654288671 2069811282 627065221 1031745908 1820857341
        1319837826 267350059 607637607</internalNodes>
      <leafValues>
        -4.0738639235496521e-01 3.5427197813987732e-01</leafValues></_>
    <_>
      <internalNodes>
        0 -1 8276 -2043236555 1064809944 -268334953 -235147187 331266658
        -536231352 692973915 225380468</internalNodes>
      <leafValues>
        -6.0079586505889893e-01 2.5875976681709290e-01</leafValues></_>
    <_>
      <internalNodes>
        0 -1 4780 974408318 -1134934768 -1991518593 420694179 672238269
        -1148380146 857747620 -756001928</internalNodes>
      <leafValues>
        -5.4825603961944580e-01 3.1580340862274170e-01</leafValues></_>
    <_>
      <internalNodes>
        0 -1 7568 -83906585 -51445761 2113923057 1055916030 -1073774916
        -1224802817 1879047594 -1004049041</internalNodes>
      <leafValues>
        -3.6258280277252197e-01 4.6235826611518860e-01</leafValues></_>
    <_>
      <internalNodes>
        0 -1 8394 525450705 399642826 72189402 805503319 859175850
        1220575262 -1247031238 1913018682</internalNodes>
      <leafValues>
        -4.5179095864295959e-01 3.6308687925338745e-01</leafValues></_></weakClassifiers></stage14>
</opencv_storage>
