<?xml version="1.0"?>
<opencv_storage>
<stage10>
  <maxWeakCount>6</maxWeakCount>
  <stageThreshold>-1.2860567569732666e+00</stageThreshold>
  <weakClassifiers>
    <_>
      <internalNodes>
        0 -1 5702 -782901765 -1118981666 -641311331 -550268707
        -106055445 -74788685 -2001759748 -302392577</internalNodes>
      <leafValues>
        -7.8302359580993652e-01 -4.8951048403978348e-02</leafValues></_>
    <_>
      <internalNodes>
        0 -1 746 -1953563758 -38030534 864748959 -75769372 264174255
        -384308181 1237438398 1876556789</internalNodes>
      <leafValues>
        -6.7164027690887451e-01 1.8731977045536041e-01</leafValues></_>
    <_>
      <internalNodes>
        0 -1 8204 -26539184 -102840937 -2113715814 -2529195 1556626077
        -351713085 -339824226 -307070946</internalNodes>
      <leafValues>
        -6.3587498664855957e-01 2.8008246421813965e-01</leafValues></_>
    <_>
      <internalNodes>
        0 -1 5509 -144755930 -1091137330 -649822731 1994969278 984186100
        -1066349770 1877986292 -1540304432</internalNodes>
      <leafValues>
        -6.8567878007888794e-01 2.4750515818595886e-01</leafValues></_>
    <_>
      <internalNodes>
        0 -1 8391 1731720209 -1346535562 -83886338 -180611 1341980143
        -167772161 1610416126 -59375873</internalNodes>
      <leafValues>
        -3.8053134083747864e-01 4.8574185371398926e-01</leafValues></_>
    <_>
      <internalNodes>
        0 -1 770 -427495512 -197738456 1360183772 -1727643322 1767557341
        -1550221173 -89734515 -980397643</internalNodes>
      <leafValues>
        -7.8772491216659546e-01 2.5696712732315063e-01</leafValues></_></weakClassifiers></stage10>
</opencv_storage>
