<?xml version="1.0"?>
<opencv_storage>
<stage13>
  <maxWeakCount>7</maxWeakCount>
  <stageThreshold>-1.5317043066024780e+00</stageThreshold>
  <weakClassifiers>
    <_>
      <internalNodes>
        0 -1 8443 -69472809 -2013538953 -1203683168 -1182889067
        -1697752674 -318715381 1317790112 -839921569</internalNodes>
      <leafValues>
        -8.2508039474487305e-01 -3.4335261583328247e-01</leafValues></_>
    <_>
      <internalNodes>
        0 -1 5241 789813689 965759322 -1999568421 387742038 1753533887
        -1895135078 580852477 460471936</internalNodes>
      <leafValues>
        -5.9268069267272949e-01 1.3749250769615173e-01</leafValues></_>
    <_>
      <internalNodes>
        0 -1 8012 1461418179 727435319 -922296984 1532038617 1006811802
        991872442 -603420720 1080651681</internalNodes>
      <leafValues>
        -4.5580768585205078e-01 3.0980104207992554e-01</leafValues></_>
    <_>
      <internalNodes>
        0 -1 2353 -1364103029 1816414534 -2008679583 -1063345584
        -1030217711 739883040 -1043520556 -268412480</internalNodes>
      <leafValues>
        -6.8980020284652710e-01 2.6405265927314758e-01</leafValues></_>
    <_>
      <internalNodes>
        0 -1 939 -70816042 -1435841692 -628657987 2142748893 151780287
        84641818 -181550701 -842804066</internalNodes>
      <leafValues>
        -4.8734313249588013e-01 3.4101995825767517e-01</leafValues></_>
    <_>
      <internalNodes>
        0 -1 241 1633543174 1552044442 17008667 -1747992566 1671663759
        -1442119256 1518586045 -1107985949</internalNodes>
      <leafValues>
        -4.2226225137710571e-01 3.7990638613700867e-01</leafValues></_>
    <_>
      <internalNodes>
        0 -1 7630 781374128 -1937014771 -1677622959 -115722751
        1916887680 806669498 -1690099537 6698236</internalNodes>
      <leafValues>
        -6.9670844078063965e-01 2.2180852293968201e-01</leafValues></_></weakClassifiers></stage13>
</opencv_storage>
