<?xml version="1.0"?>
<opencv_storage>
<stage17>
  <maxWeakCount>7</maxWeakCount>
  <stageThreshold>-1.5909031629562378e+00</stageThreshold>
  <weakClassifiers>
    <_>
      <internalNodes>
        0 -1 6438 -188746053 -1650867113 -2058267491 -1217195794
        -104223493 -1097207397 1770905853 -1912737357</internalNodes>
      <leafValues>
        -7.9763913154602051e-01 -2.5117003917694092e-01</leafValues></_>
    <_>
      <internalNodes>
        0 -1 8365 -8651077 -1495584580 -670391984 -146563238 -1724400645
        177949979 -851053599 -840964850</internalNodes>
      <leafValues>
        -5.3931605815887451e-01 2.1634149551391602e-01</leafValues></_>
    <_>
      <internalNodes>
        0 -1 7497 1188008274 -719793527 -1291437988 -560131629
        -649462824 -1666637413 1251404304 -590067497</internalNodes>
      <leafValues>
        -6.0369175672531128e-01 2.3627828061580658e-01</leafValues></_>
    <_>
      <internalNodes>
        0 -1 3228 671414250 2023543682 -774810614 1595787038 332853163
        -1086733952 1376319721 -1922629387</internalNodes>
      <leafValues>
        -5.5722492933273315e-01 2.9007241129875183e-01</leafValues></_>
    <_>
      <internalNodes>
        0 -1 5319 -126734983 -362414220 -318800139 -1217628419
        -1091960836 -813760771 -18876420 -351382060</internalNodes>
      <leafValues>
        -3.6784884333610535e-01 4.3978172540664673e-01</leafValues></_>
    <_>
      <internalNodes>
        0 -1 8395 2103763543 689639706 1711423581 1531990577 -1832148742
        -1919295351 -1993756600 -1434829025</internalNodes>
      <leafValues>
        -4.4793945550918579e-01 3.7707108259201050e-01</leafValues></_>
    <_>
      <internalNodes>
        0 -1 0 2101753519 1217741082 -914279022 417583249 -408479274
        -784099064 -338698059 302033110</internalNodes>
      <leafValues>
        -5.2585077285766602e-01 3.2899066805839539e-01</leafValues></_></weakClassifiers></stage17>
</opencv_storage>
