<?xml version="1.0"?>
<opencv_storage>
<stage19>
  <maxWeakCount>5</maxWeakCount>
  <stageThreshold>8.2483641803264618e-02</stageThreshold>
  <weakClassifiers>
    <_>
      <internalNodes>
        0 -1 71764 9.7405120730400085e-02</internalNodes>
      <leafValues>
        6.7599999904632568e-01 -9.3750000000000000e-01</leafValues></_>
    <_>
      <internalNodes>
        0 -1 68642 -1.3519907370209694e-02</internalNodes>
      <leafValues>
        -6.4527547359466553e-01 5.0133967399597168e-01</leafValues></_>
    <_>
      <internalNodes>
        0 -1 61443 -3.8976208306849003e-03</internalNodes>
      <leafValues>
        9.0782713890075684e-01 -3.6415046453475952e-01</leafValues></_>
    <_>
      <internalNodes>
        0 -1 156328 5.1962304860353470e-04</internalNodes>
      <leafValues>
        -1.9980445504188538e-01 7.9946982860565186e-01</leafValues></_>
    <_>
      <internalNodes>
        0 -1 139711 -1.2978139566257596e-03</internalNodes>
      <leafValues>
        9.6675276756286621e-01 -1.8937873840332031e-01</leafValues></_></weakClassifiers></stage19>
</opencv_storage>
