<?xml version="1.0"?>
<opencv_storage>
<stage9>
  <maxWeakCount>12</maxWeakCount>
  <stageThreshold>-1.7973251342773438e+00</stageThreshold>
  <weakClassifiers>
    <_>
      <internalNodes>
        0 -1 110 6.3599362969398499e-02</internalNodes>
      <leafValues>
        -9.1530317068099976e-01 -5.7175397872924805e-01</leafValues></_>
    <_>
      <internalNodes>
        0 -1 122 3.9450302720069885e-02</internalNodes>
      <leafValues>
        -7.3654711246490479e-01 -5.0811029970645905e-02</leafValues></_>
    <_>
      <internalNodes>
        0 -1 265 2.3639377206563950e-02</internalNodes>
      <leafValues>
        2.1393571794033051e-01 -4.5570787787437439e-01</leafValues></_>
    <_>
      <internalNodes>
        0 -1 96 1.9751952961087227e-02</internalNodes>
      <leafValues>
        -5.2656799554824829e-01 2.1701224148273468e-01</leafValues></_>
    <_>
      <internalNodes>
        0 -1 102 3.4759793430566788e-02</internalNodes>
      <leafValues>
        -3.6142161488533020e-01 3.2846695184707642e-01</leafValues></_>
    <_>
      <internalNodes>
        0 -1 6 1.4591964893043041e-02</internalNodes>
      <leafValues>
        1.9688290357589722e-01 -4.6811020374298096e-01</leafValues></_>
    <_>
      <internalNodes>
        0 -1 268 1.5750795602798462e-02</internalNodes>
      <leafValues>
        -6.7977494001388550e-01 1.2668348848819733e-01</leafValues></_>
    <_>
      <internalNodes>
        0 -1 39 3.8594901561737061e-02</internalNodes>
      <leafValues>
        1.1588063836097717e-01 -6.6283077001571655e-01</leafValues></_>
    <_>
      <internalNodes>
        0 -1 110 4.1773051023483276e-02</internalNodes>
      <leafValues>
        -3.4357365965843201e-01 2.5015348196029663e-01</leafValues></_>
    <_>
      <internalNodes>
        0 -1 321 2.3473490029573441e-02</internalNodes>
      <leafValues>
        1.4229784905910492e-01 -5.3307771682739258e-01</leafValues></_>
    <_>
      <internalNodes>
        0 -1 86 6.6083386540412903e-02</internalNodes>
      <leafValues>
        -1.0735929757356644e-01 7.3256558179855347e-01</leafValues></_>
    <_>
      <internalNodes>
        0 -1 150 3.4344196319580078e-02</internalNodes>
      <leafValues>
        -1.3308177888393402e-01 4.8584991693496704e-01</leafValues></_></weakClassifiers></stage9>
</opencv_storage>
