<?xml version="1.0"?>
<opencv_storage>
<stage5>
  <maxWeakCount>19</maxWeakCount>
  <stageThreshold>-5.2705919742584229e-01</stageThreshold>
  <weakClassifiers>
    <_>
      <internalNodes>
        0 -1 121776 6.3315778970718384e-03</internalNodes>
      <leafValues>
        1.1323764175176620e-01 8.3882784843444824e-01</leafValues></_>
    <_>
      <internalNodes>
        0 -1 8170 -7.3253717273473740e-03</internalNodes>
      <leafValues>
        6.6416674852371216e-01 -6.9941438734531403e-02</leafValues></_>
    <_>
      <internalNodes>
        0 -1 139027 -2.9160441044950858e-05</internalNodes>
      <leafValues>
        2.4509823322296143e-01 -3.7411689758300781e-01</leafValues></_>
    <_>
      <internalNodes>
        0 -1 128337 8.8257174938917160e-03</internalNodes>
      <leafValues>
        -9.7437195479869843e-02 8.6894005537033081e-01</leafValues></_>
    <_>
      <internalNodes>
        0 -1 71444 -4.2857592925429344e-03</internalNodes>
      <leafValues>
        5.7802015542984009e-01 -2.0335866510868073e-01</leafValues></_>
    <_>
      <internalNodes>
        0 -1 93673 5.8051222003996372e-04</internalNodes>
      <leafValues>
        1.8203102052211761e-01 -5.1615631580352783e-01</leafValues></_>
    <_>
      <internalNodes>
        0 -1 851 -2.5431358814239502e-01</internalNodes>
      <leafValues>
        -6.9226694107055664e-01 1.1141620576381683e-01</leafValues></_>
    <_>
      <internalNodes>
        0 -1 106753 7.2722472250461578e-03</internalNodes>
      <leafValues>
        9.1031253337860107e-02 -8.0306446552276611e-01</leafValues></_>
    <_>
      <internalNodes>
        0 -1 60602 5.4413098841905594e-03</internalNodes>
      <leafValues>
        -2.1631528437137604e-01 4.6709188818931580e-01</leafValues></_>
    <_>
      <internalNodes>
        0 -1 159470 1.0969631373882294e-02</internalNodes>
      <leafValues>
        -1.3913933932781219e-01 6.1638981103897095e-01</leafValues></_>
    <_>
      <internalNodes>
        0 -1 146095 -4.6882037073373795e-02</internalNodes>
      <leafValues>
        4.7146031260490417e-01 -1.8779452145099640e-01</leafValues></_>
    <_>
      <internalNodes>
        0 -1 160735 -2.0091012120246887e-03</internalNodes>
      <leafValues>
        -7.1198219060897827e-01 1.3531149923801422e-01</leafValues></_>
    <_>
      <internalNodes>
        0 -1 27407 -2.1161671727895737e-02</internalNodes>
      <leafValues>
        4.5103183388710022e-01 -1.9197158515453339e-01</leafValues></_>
    <_>
      <internalNodes>
        0 -1 152146 3.0189709737896919e-02</internalNodes>
      <leafValues>
        -1.5464299917221069e-01 5.6415009498596191e-01</leafValues></_>
    <_>
      <internalNodes>
        0 -1 74856 -1.1228198558092117e-01</internalNodes>
      <leafValues>
        8.3612716197967529e-01 -9.1138601303100586e-02</leafValues></_>
    <_>
      <internalNodes>
        0 -1 154823 -8.2553308457136154e-03</internalNodes>
      <leafValues>
        4.8953902721405029e-01 -1.9582793116569519e-01</leafValues></_>
    <_>
      <internalNodes>
        0 -1 120126 7.9389178426936269e-04</internalNodes>
      <leafValues>
        1.3233596086502075e-01 -6.1472737789154053e-01</leafValues></_>
    <_>
      <internalNodes>
        0 -1 127092 -3.5764998756349087e-04</internalNodes>
      <leafValues>
        2.6900836825370789e-01 -2.9117903113365173e-01</leafValues></_>
    <_>
      <internalNodes>
        0 -1 57624 1.2184797786176205e-02</internalNodes>
      <leafValues>
        -1.3511501252651215e-01 6.3373172283172607e-01</leafValues></_></weakClassifiers></stage5>
</opencv_storage>
