<?xml version="1.0"?>
<opencv_storage>
<stage14>
  <maxWeakCount>17</maxWeakCount>
  <stageThreshold>-6.2104099988937378e-01</stageThreshold>
  <weakClassifiers>
    <_>
      <internalNodes>
        0 -1 17442 5.4977163672447205e-03</internalNodes>
      <leafValues>
        4.2335766553878784e-01 -6.1538463830947876e-01</leafValues></_>
    <_>
      <internalNodes>
        0 -1 161279 -4.3070372194051743e-03</internalNodes>
      <leafValues>
        6.1589050292968750e-01 -1.2806549668312073e-01</leafValues></_>
    <_>
      <internalNodes>
        0 -1 5567 5.2825217135250568e-03</internalNodes>
      <leafValues>
        1.1643686145544052e-01 -5.8803498744964600e-01</leafValues></_>
    <_>
      <internalNodes>
        0 -1 5051 1.1824637651443481e-02</internalNodes>
      <leafValues>
        -9.7467884421348572e-02 9.3249166011810303e-01</leafValues></_>
    <_>
      <internalNodes>
        0 -1 39962 5.0973249599337578e-03</internalNodes>
      <leafValues>
        -1.7199259996414185e-01 5.0296360254287720e-01</leafValues></_>
    <_>
      <internalNodes>
        0 -1 25515 -3.3341646194458008e-03</internalNodes>
      <leafValues>
        3.1032413244247437e-01 -2.5849220156669617e-01</leafValues></_>
    <_>
      <internalNodes>
        0 -1 133498 4.2636943981051445e-03</internalNodes>
      <leafValues>
        1.4872525632381439e-01 -5.9324914216995239e-01</leafValues></_>
    <_>
      <internalNodes>
        0 -1 121203 1.0585183277726173e-02</internalNodes>
      <leafValues>
        -1.1622547358274460e-01 6.8643218278884888e-01</leafValues></_>
    <_>
      <internalNodes>
        0 -1 106902 -1.0560344671830535e-03</internalNodes>
      <leafValues>
        -3.4836623072624207e-01 2.2961936891078949e-01</leafValues></_>
    <_>
      <internalNodes>
        0 -1 159531 4.9507627263665199e-03</internalNodes>
      <leafValues>
        -1.6546252369880676e-01 4.4822946190834045e-01</leafValues></_>
    <_>
      <internalNodes>
        0 -1 40673 1.2993887066841125e-03</internalNodes>
      <leafValues>
        -1.0523147135972977e-01 7.4579405784606934e-01</leafValues></_>
    <_>
      <internalNodes>
        0 -1 111404 -2.9538530856370926e-02</internalNodes>
      <leafValues>
        4.3470975756645203e-01 -1.6844119131565094e-01</leafValues></_>
    <_>
      <internalNodes>
        0 -1 105366 -1.2591132872330490e-05</internalNodes>
      <leafValues>
        2.2928278148174286e-01 -3.2013583183288574e-01</leafValues></_>
    <_>
      <internalNodes>
        0 -1 124502 2.3968375753611326e-03</internalNodes>
      <leafValues>
        1.3950538635253906e-01 -5.5229175090789795e-01</leafValues></_>
    <_>
      <internalNodes>
        0 -1 69247 -3.1588278710842133e-02</internalNodes>
      <leafValues>
        -4.8507514595985413e-01 1.5548700094223022e-01</leafValues></_>
    <_>
      <internalNodes>
        0 -1 59227 -1.1293319403193891e-05</internalNodes>
      <leafValues>
        2.4006614089012146e-01 -3.4226772189140320e-01</leafValues></_>
    <_>
      <internalNodes>
        0 -1 147021 -2.8671221807599068e-03</internalNodes>
      <leafValues>
        -5.3781425952911377e-01 1.4093071222305298e-01</leafValues></_></weakClassifiers></stage14>
</opencv_storage>
