<?xml version="1.0"?>
<opencv_storage>
<cascade>
  <stageType>BOOST</stageType>
  <featureType>LBP</featureType>
  <height>24</height>
  <width>24</width>
  <stageParams>
    <boostType>GAB</boostType>
    <minHitRate>9.9000000953674316e-01</minHitRate>
    <maxFalseAlarm>5.0000000000000000e-01</maxFalseAlarm>
    <weightTrimRate>9.4999998807907104e-01</weightTrimRate>
    <maxDepth>1</maxDepth>
    <maxWeakCount>100</maxWeakCount></stageParams>
  <featureParams>
    <maxCatCount>256</maxCatCount>
    <featSize>1</featSize></featureParams>
  <stageNum>20</stageNum>
  <stages>
    <!-- stage 0 -->
    <_>
      <maxWeakCount>3</maxWeakCount>
      <stageThreshold>-1.3041280508041382e+00</stageThreshold>
      <weakClassifiers>
        <_>
          <internalNodes>
            0 -1 75 -1 -891816733 -481306640 -507262517 -104799660
            -763117565 -393415808 -855638785</internalNodes>
          <leafValues>
            -8.5918718576431274e-01 3.1891891360282898e-01</leafValues></_>
        <_>
          <internalNodes>
            0 -1 5 -337645577 -2112952352 -624165134 -82838080
            -807414861 -878187522 -220466459 -305661961</internalNodes>
          <leafValues>
            -7.5790494680404663e-01 5.0294905900955200e-01</leafValues></_>
        <_>
          <internalNodes>
            0 -1 35 -553648146 -153096177 -1655516722 -291579332
            -237522011 -107367777 -963712236 -990842380</internalNodes>
          <leafValues>
            -8.6514204740524292e-01 3.9329877495765686e-01</leafValues></_></weakClassifiers></_>
    <!-- stage 1 -->
    <_>
      <maxWeakCount>3</maxWeakCount>
      <stageThreshold>-1.0680234432220459e+00</stageThreshold>
      <weakClassifiers>
        <_>
          <internalNodes>
            0 -1 74 -135004161 -11010081 -102933537 -56625185 -741098729
            -134240137 -1049601 -150999073</internalNodes>
          <leafValues>
            -8.3552628755569458e-01 4.8122867941856384e-01</leafValues></_>
        <_>
          <internalNodes>
            0 -1 21 -538968449 -342179 -66611769 1925904734 -943492315
            -68182953 -160435361 -17302657</internalNodes>
          <leafValues>
            -6.9408851861953735e-01 6.0591596364974976e-01</leafValues></_>
        <_>
          <internalNodes>
            0 -1 4 -5394 -19465217 1721166880 -118078722 -2229761
            -669015107 -105907244 -185205817</internalNodes>
          <leafValues>
            -8.1417965888977051e-01 4.6159133315086365e-01</leafValues></_></weakClassifiers></_>
    <!-- stage 2 -->
    <_>
      <maxWeakCount>3</maxWeakCount>
      <stageThreshold>-1.0483700037002563e+00</stageThreshold>
      <weakClassifiers>
        <_>
          <internalNodes>
            0 -1 16 -537405441 -69742093 -1794813697 -33367970
            -1422975873 -276098921 -73405729 -33554433</internalNodes>
          <leafValues>
            -8.1999999284744263e-01 2.9337540268898010e-01</leafValues></_>
        <_>
          <internalNodes>
            0 -1 63 -603981841 -687742305 -1862090626 -70782689
            -387192412 -930361334 -499850344 -864031489</internalNodes>
          <leafValues>
            -6.4801269769668579e-01 5.2913606166839600e-01</leafValues></_>
        <_>
          <internalNodes>
            0 -1 24 -355537726 -295255493 1024685555 2067242900
            -1411913345 -1145403189 -47483137 -403178953</internalNodes>
          <leafValues>
            -6.9373273849487305e-01 4.6196490526199341e-01</leafValues></_></weakClassifiers></_>
    <!-- stage 3 -->
    <_>
      <maxWeakCount>3</maxWeakCount>
      <stageThreshold>-1.0100936889648438e+00</stageThreshold>
      <weakClassifiers>
        <_>
          <internalNodes>
            0 -1 66 -144704513 -337661495 -645400101 -605030439
            -35652609 -289427285 -843328523 -2049</internalNodes>
          <leafValues>
            -8.1838077306747437e-01 3.9100345969200134e-01</leafValues></_>
        <_>
          <internalNodes>
            0 -1 73 1876948567 2010512223 -867867658 2128529403
            -853845699 -1106548482 -17829890 -53020818</internalNodes>
          <leafValues>
            -7.3938786983489990e-01 3.9855444431304932e-01</leafValues></_>
        <_>
          <internalNodes>
            0 -1 26 -538968349 -188748321 -1878680757 -154772545
            -255895689 1065022654 -364389390 -99947813</internalNodes>
          <leafValues>
            -5.9026741981506348e-01 5.7788461446762085e-01</leafValues></_></weakClassifiers></_>
    <!-- stage 4 -->
    <_>
      <maxWeakCount>3</maxWeakCount>
      <stageThreshold>-1.0767023563385010e+00</stageThreshold>
      <weakClassifiers>
        <_>
          <internalNodes>
            0 -1 78 -538968065 -1948793381 -1063266849 -3410977
            -661655633 -1416891923 -607158795 -536870913</internalNodes>
          <leafValues>
            -8.0989009141921997e-01 3.0639731884002686e-01</leafValues></_>
        <_>
          <internalNodes>
            0 -1 2 -297080881 -286072062 889608543 -41552484 -125050375
            -607425320 -528287249 -443285515</internalNodes>
          <leafValues>
            -7.1930319070816040e-01 3.4198045730590820e-01</leafValues></_>
        <_>
          <internalNodes>
            0 -1 88 -786577 -2012753337 1715718935 -60887329 2050442263
            -834479836 -71339281 -151521666</internalNodes>
          <leafValues>
            -6.0879272222518921e-01 5.1861751079559326e-01</leafValues></_></weakClassifiers></_>
    <!-- stage 5 -->
    <_>
      <maxWeakCount>3</maxWeakCount>
      <stageThreshold>-1.1312441825866699e+00</stageThreshold>
      <weakClassifiers>
        <_>
          <internalNodes>
            0 -1 94 -808196369 -305233188 56082610 -100672639 -213016341
            -1986809718 -754211598 -6294293</internalNodes>
          <leafValues>
            -8.3098590373992920e-01 2.6900583505630493e-01</leafValues></_>
        <_>
          <internalNodes>
            0 -1 46 -2138406158 -1727180044 -1870458021 -144731879
            -1819496216 -526204927 -1450671897 -1050127</internalNodes>
          <leafValues>
            -7.0109021663665771e-01 4.1850036382675171e-01</leafValues></_>
        <_>
          <internalNodes>
            0 -1 49 -1093008896 -44437033 -1123839553 -1117785601
            -1589405531 -527769431 -1768977928 -198214725</internalNodes>
          <leafValues>
            -6.7736202478408813e-01 4.0083193778991699e-01</leafValues></_></weakClassifiers></_>
    <!-- stage 6 -->
    <_>
      <maxWeakCount>5</maxWeakCount>
      <stageThreshold>-1.1388715505599976e+00</stageThreshold>
      <weakClassifiers>
        <_>
          <internalNodes>
            0 -1 53 -782246465 973050836 -577373699 -2123609 -1365509969
            -1140860197 -119942660 -100927334</internalNodes>
          <leafValues>
            -8.0088007450103760e-01 2.4414715170860291e-01</leafValues></_>
        <_>
          <internalNodes>
            0 -1 50 -152050793 1920923615 1931727551 -147128450
            -77237314 -635535179 -348920839 -101389896</internalNodes>
          <leafValues>
            -7.2059339284896851e-01 3.1605723500251770e-01</leafValues></_>
        <_>
          <internalNodes>
            0 -1 71 -10529449 -413773289 -1037574785 2136069316
            -105387046 -32464113 -539764994 -30738817</internalNodes>
          <leafValues>
            -5.5543535947799683e-01 5.2092105150222778e-01</leafValues></_>
        <_>
          <internalNodes>
            0 -1 77 -10490893 -1494301765 -1467883548 1802483324
            1067906159 -604405625 -424907808 -956304911</internalNodes>
          <leafValues>
            -6.4080518484115601e-01 4.6381288766860962e-01</leafValues></_>
        <_>
          <internalNodes>
            0 -1 14 -1048905 -155320594 -25239810 -1157972420 2139047772
            -276824197 -270536849 -109576341</internalNodes>
          <leafValues>
            -5.0283539295196533e-01 6.0165882110595703e-01</leafValues></_></weakClassifiers></_>
    <!-- stage 7 -->
    <_>
      <maxWeakCount>5</maxWeakCount>
      <stageThreshold>-2.0642068386077881e+00</stageThreshold>
      <weakClassifiers>
        <_>
          <internalNodes>
            0 -1 38 -100699137 -708875909 -753155821 -740297747
            -611399429 -893695541 -70778881 -10816513</internalNodes>
          <leafValues>
            -8.1531530618667603e-01 1.9061583280563354e-01</leafValues></_>
        <_>
          <internalNodes>
            0 -1 61 -576729323 -13833357 1351832543 2140142959
            -353518279 -75290727 -33118017 -52232449</internalNodes>
          <leafValues>
            -6.8983912467956543e-01 3.3809840679168701e-01</leafValues></_>
        <_>
          <internalNodes>
            0 -1 3 -1348469065 -892444588 -787099147 -1076496404
            -904922113 1670101144 1758193367 -541723675</internalNodes>
          <leafValues>
            -6.3517129421234131e-01 4.0830847620964050e-01</leafValues></_>
        <_>
          <internalNodes>
            0 -1 54 1568619541 1606385662 -4233 -13582339 -33583171 -129
            2063060671 -30605971</internalNodes>
          <leafValues>
            -4.8506304621696472e-01 5.5819410085678101e-01</leafValues></_>
        <_>
          <internalNodes>
            0 -1 90 -136317465 -1798925871 -528236527 1053741207
            1601403628 -869559614 1540103148 -1879048385</internalNodes>
          <leafValues>
            -4.8229780793190002e-01 6.0607945919036865e-01</leafValues></_></weakClassifiers></_>
    <!-- stage 8 -->
    <_>
      <maxWeakCount>5</maxWeakCount>
      <stageThreshold>-1.4518592357635498e+00</stageThreshold>
      <weakClassifiers>
        <_>
          <internalNodes>
            0 -1 45 1596677503 -543177825 -586737321 -1188385 -195410514
            -18103922 -1344866309 -7669253</internalNodes>
          <leafValues>
            -8.1933254003524780e-01 1.0817942023277283e-01</leafValues></_>
        <_>
          <internalNodes>
            0 -1 43 -1572033894 2139002718 1369112535 -6438509 -72167425
            -636976709 -343253606 -307441740</internalNodes>
          <leafValues>
            -6.5541774034500122e-01 3.1586992740631104e-01</leafValues></_>
        <_>
          <internalNodes>
            0 -1 65 -1429734977 -1176968395 89363101 -35728428
            -1181487363 -1423716309 -544238343 -1912619652</internalNodes>
          <leafValues>
            -5.5892968177795410e-01 4.8179942369461060e-01</leafValues></_>
        <_>
          <internalNodes>
            0 -1 27 -19003861 -1090948034 1392771037 982965020
            2086482549 -1156625862 1048603578 -1418529925</internalNodes>
          <leafValues>
            -7.2242617607116699e-01 3.6960792541503906e-01</leafValues></_>
        <_>
          <internalNodes>
            0 -1 59 -539399437 -834818672 -787394086 -723368980
            -1446447500 -298141208 1637677276 -1672415436</internalNodes>
          <leafValues>
            -7.1529912948608398e-01 4.0497571229934692e-01</leafValues></_></weakClassifiers></_>
    <!-- stage 9 -->
    <_>
      <maxWeakCount>5</maxWeakCount>
      <stageThreshold>-1.3085622787475586e+00</stageThreshold>
      <weakClassifiers>
        <_>
          <internalNodes>
            0 -1 32 -562301953 -40242089 1141087231 -74955722 -759885045
            -6160086 -1953764609 -7353297</internalNodes>
          <leafValues>
            -8.0693644285202026e-01 3.3591732382774353e-02</leafValues></_>
        <_>
          <internalNodes>
            0 -1 11 -85983553 -1503223782 -1878469802 -694066542
            -258483202 -1149517696 547486311 -148383757</internalNodes>
          <leafValues>
            -6.0134482383728027e-01 3.6072099208831787e-01</leafValues></_>
        <_>
          <internalNodes>
            0 -1 81 -941700268 -606895281 -124554824 1487986559
            -1826181816 2015373369 -1208364117 -166217729</internalNodes>
          <leafValues>
            -5.8091062307357788e-01 4.0146148204803467e-01</leafValues></_>
        <_>
          <internalNodes>
            0 -1 69 -387568011 2079720789 -641211184 2006827991
            -783786640 -3583104 -116810306 -348498690</internalNodes>
          <leafValues>
            -5.6732261180877686e-01 4.3113097548484802e-01</leafValues></_>
        <_>
          <internalNodes>
            0 -1 22 -1952521574 -140545658 -905904097 -749479286
            194635423 -107245430 1237944968 1305063684</internalNodes>
          <leafValues>
            -6.5856516361236572e-01 4.0742406249046326e-01</leafValues></_></weakClassifiers></_>
    <!-- stage 10 -->
    <_>
      <maxWeakCount>5</maxWeakCount>
      <stageThreshold>-1.3006647825241089e+00</stageThreshold>
      <weakClassifiers>
        <_>
          <internalNodes>
            0 -1 15 -4200225 -614476849 -788345097 -1219825193
            -642814085 2017957900 -13640737 -76555361</internalNodes>
          <leafValues>
            -7.8234314918518066e-01 8.2278482615947723e-02</leafValues></_>
        <_>
          <internalNodes>
            0 -1 87 -245379997 -141570016 1460924703 -578041257
            -393492458 -106985213 1880352911 -21236997</internalNodes>
          <leafValues>
            -5.3659945726394653e-01 4.3750700354576111e-01</leafValues></_>
        <_>
          <internalNodes>
            0 -1 70 -1565591619 -1961166376 -922658659 -1378072492
            -638792930 -272630683 -913815044 -1887694531</internalNodes>
          <leafValues>
            -6.9156837463378906e-01 3.1536805629730225e-01</leafValues></_>
        <_>
          <internalNodes>
            0 -1 39 -586181 -258976869 1359202234 532703434 -1275110660
            -546658298 -72684713 -26723332</internalNodes>
          <leafValues>
            -6.1582297086715698e-01 3.5525313019752502e-01</leafValues></_>
        <_>
          <internalNodes>
            0 -1 29 -84875606 -15105662 1377934259 2119741959 176720882
            -536674136 967928826 -987665514</internalNodes>
          <leafValues>
            -6.1951339244842529e-01 3.7478950619697571e-01</leafValues></_></weakClassifiers></_>
    <!-- stage 11 -->
    <_>
      <maxWeakCount>5</maxWeakCount>
      <stageThreshold>-1.4106489419937134e+00</stageThreshold>
      <weakClassifiers>
        <_>
          <internalNodes>
            0 -1 51 -203817985 -1084394595 -1325198857 -15369895
            -1283220481 -5585781 -101799747 -33575681</internalNodes>
          <leafValues>
            -7.6779025793075562e-01 2.0967741310596466e-01</leafValues></_>
        <_>
          <internalNodes>
            0 -1 68 -253800034 1505038484 -1551152833 2094815964
            -1102413140 2141160354 -119821092 -35758375</internalNodes>
          <leafValues>
            -6.3836443424224854e-01 2.9045522212982178e-01</leafValues></_>
        <_>
          <internalNodes>
            0 -1 17 1602168382 -1021928773 -1604745123 1916589626
            -349297892 993208655 1823080878 -112738653</internalNodes>
          <leafValues>
            -6.1223530769348145e-01 3.6800724267959595e-01</leafValues></_>
        <_>
          <internalNodes>
            0 -1 9 1861124930 -759118900 -1274930689 -1951219282
            -1707030054 -266762847 -712822261 -680003017</internalNodes>
          <leafValues>
            -5.3278475999832153e-01 4.1862788796424866e-01</leafValues></_>
        <_>
          <internalNodes>
            0 -1 34 -391350702 2127886396 -1056849648 835999312
            151111834 -360038014 -1174197317 -2005085700</internalNodes>
          <leafValues>
            -7.6853638887405396e-01 3.4169530868530273e-01</leafValues></_></weakClassifiers></_>
    <!-- stage 12 -->
    <_>
      <maxWeakCount>5</maxWeakCount>
      <stageThreshold>-1.9411202669143677e+00</stageThreshold>
      <weakClassifiers>
        <_>
          <internalNodes>
            0 -1 48 -656418979 -648063539 -384705441 -1621239397
            -259341857 -603354920 -1930708549 -86256401</internalNodes>
          <leafValues>
            -7.8265768289566040e-01 2.0527860149741173e-02</leafValues></_>
        <_>
          <internalNodes>
            0 -1 41 1911958399 -36908033 965089687 1902822223
            -1428985784 -82935493 -150930438 -1090326529</internalNodes>
          <leafValues>
            -5.9488379955291748e-01 2.6732450723648071e-01</leafValues></_>
        <_>
          <internalNodes>
            0 -1 85 1748958301 1058615519 1342206303 1515944517
            277528830 2144059435 -303438901 -395126913</internalNodes>
          <leafValues>
            -5.2850425243377686e-01 3.9023429155349731e-01</leafValues></_>
        <_>
          <internalNodes>
            0 -1 91 -274204761 -124344989 -610688650 -527199345
            -99192078 954884323 -337991036 -591423938</internalNodes>
          <leafValues>
            -4.5644569396972656e-01 4.5486408472061157e-01</leafValues></_>
        <_>
          <internalNodes>
            0 -1 23 -849087549 -1094295082 1258528220 -1491107821
            790714594 -2068086655 2067986923 1576497634</internalNodes>
          <leafValues>
            -4.9736732244491577e-01 4.1417393088340759e-01</leafValues></_></weakClassifiers></_>
    <!-- stage 13 -->
    <_>
      <maxWeakCount>6</maxWeakCount>
      <stageThreshold>-1.8386175632476807e+00</stageThreshold>
      <weakClassifiers>
        <_>
          <internalNodes>
            0 -1 92 -545259521 -1248592993 -985597809 -578423653
            -250904321 -132197489 -104621092 -289</internalNodes>
          <leafValues>
            -7.5145423412322998e-01 1.6814158856868744e-01</leafValues></_>
        <_>
          <internalNodes>
            0 -1 6 1826553470 -807223140 1342388679 -580681576
            -804522085 -628113277 -1229493287 -180126861</internalNodes>
          <leafValues>
            -6.6691499948501587e-01 2.2357524931430817e-01</leafValues></_>
        <_>
          <internalNodes>
            0 -1 62 1597917673 -126332521 -1273915684 2021277661
            713408256 2134017066 175032444 -194533378</internalNodes>
          <leafValues>
            -6.9681179523468018e-01 2.5631356239318848e-01</leafValues></_>
        <_>
          <internalNodes>
            0 -1 57 -1059073601 -1567492397 2031769054 -1344429994
            -399303171 -321016878 176531373 -990120998</internalNodes>
          <leafValues>
            -5.0636148452758789e-01 3.8944119215011597e-01</leafValues></_>
        <_>
          <internalNodes>
            0 -1 52 -128238673 -1225621281 -111611500 -1227188578
            1218443382 1209533098 2129362324 -197987884</internalNodes>
          <leafValues>
            -6.2462782859802246e-01 3.3182013034820557e-01</leafValues></_>
        <_>
          <internalNodes>
            0 -1 18 -1739603213 -36170611 -1056144997 313167960
            -1051520739 -53507691 -1157051969 -227045249</internalNodes>
          <leafValues>
            -5.0202053785324097e-01 3.9799186587333679e-01</leafValues></_></weakClassifiers></_>
    <!-- stage 14 -->
    <_>
      <maxWeakCount>6</maxWeakCount>
      <stageThreshold>-1.3245680332183838e+00</stageThreshold>
      <weakClassifiers>
        <_>
          <internalNodes>
            0 -1 67 -1082214689 1973134804 294770101 -167780867
            -2074175601 -114392699 -518787141 -1342191107</internalNodes>
          <leafValues>
            -8.1360203027725220e-01 -1.7202268540859222e-01</leafValues></_>
        <_>
          <internalNodes>
            0 -1 8 1739319155 -1421465978 1091765499 -8146542
            -2101685847 1220742816 -853090875 -111676493</internalNodes>
          <leafValues>
            -6.0061079263687134e-01 2.6814600825309753e-01</leafValues></_>
        <_>
          <internalNodes>
            0 -1 86 -19471876 -1147690911 16973827 -678607989 1289759132
            1754436259 -2147419982 766204923</internalNodes>
          <leafValues>
            -5.8836543560028076e-01 3.2531386613845825e-01</leafValues></_>
        <_>
          <internalNodes>
            0 -1 56 -2005269200 -1153449511 1426446611 -2200508
            -776489320 1790575000 -532060816 -1951897204</internalNodes>
          <leafValues>
            -7.1553719043731689e-01 2.5114735960960388e-01</leafValues></_>
        <_>
          <internalNodes>
            0 -1 44 -796787715 -461232870 -1827565164 2005980058
            -1013249347 -85325655 -1428069998 -589288560</internalNodes>
          <leafValues>
            -5.5147331953048706e-01 3.4527650475502014e-01</leafValues></_>
        <_>
          <internalNodes>
            0 -1 42 -583596869 2093123648 -786145153 -686140365
            -133680705 -659030014 -683587460 -79558382</internalNodes>
          <leafValues>
            -4.6206519007682800e-01 4.1770321130752563e-01</leafValues></_></weakClassifiers></_>
    <!-- stage 15 -->
    <_>
      <maxWeakCount>6</maxWeakCount>
      <stageThreshold>-1.4039510488510132e+00</stageThreshold>
      <weakClassifiers>
        <_>
          <internalNodes>
            0 -1 93 -69218825 -472690273 428952578 -35655229 -928068661
            -282162925 1384874160 -839936673</internalNodes>
          <leafValues>
            -8.0927497148513794e-01 -2.4573378264904022e-01</leafValues></_>
        <_>
          <internalNodes>
            0 -1 36 1654094942 -7384845 -1675786145 -180304866
            -1668458195 -138269655 872011951 -77505803</internalNodes>
          <leafValues>
            -6.0583341121673584e-01 2.0397637784481049e-01</leafValues></_>
        <_>
          <internalNodes>
            0 -1 47 -2133683968 -688610401 1507035350 1595060957
            -1679905559 -883744621 -1886689297 21868696</internalNodes>
          <leafValues>
            -6.3945603370666504e-01 2.4911992251873016e-01</leafValues></_>
        <_>
          <internalNodes>
            0 -1 60 -1333454793 1502343244 626126042 1996963858
            973091512 2030250058 -343508226 1117809551</internalNodes>
          <leafValues>
            -5.5148476362228394e-01 3.2750537991523743e-01</leafValues></_>
        <_>
          <internalNodes>
            0 -1 58 -229116868 -107992555 -2118024737 -805154600
            -1407827918 -1355101758 -1560085852 -392555848</internalNodes>
          <leafValues>
            -5.3888899087905884e-01 3.3492100238800049e-01</leafValues></_>
        <_>
          <internalNodes>
            0 -1 20 -979680674 274137546 403079368 -1155660898
            -1425445885 428761344 19573488 2031876894</internalNodes>
          <leafValues>
            -5.7535421848297119e-01 3.3213937282562256e-01</leafValues></_></weakClassifiers></_>
    <!-- stage 16 -->
    <_>
      <maxWeakCount>6</maxWeakCount>
      <stageThreshold>-1.5937731266021729e+00</stageThreshold>
      <weakClassifiers>
        <_>
          <internalNodes>
            0 -1 12 -606078209 -1156188806 -1070866281 -147156858
            -1828494802 1813119139 -1693463558 -8394753</internalNodes>
          <leafValues>
            -7.7191978693008423e-01 -9.6774190664291382e-02</leafValues></_>
        <_>
          <internalNodes>
            0 -1 37 -309863957 -16645416 533779897 1572073729 1587149283
            -609615717 1284119037 -973106221</internalNodes>
          <leafValues>
            -5.0375974178314209e-01 2.9793217778205872e-01</leafValues></_>
        <_>
          <internalNodes>
            0 -1 31 -515387857 -438480520 -1055208994 814674296
            1623200078 -503259566 2133379420 -500017639</internalNodes>
          <leafValues>
            -6.7046785354614258e-01 2.4957594275474548e-01</leafValues></_>
        <_>
          <internalNodes>
            0 -1 28 2130979384 -103334076 -1957473130 445412746
            -159227487 -1142225701 -762956741 605877491</internalNodes>
          <leafValues>
            -5.2613085508346558e-01 3.1019639968872070e-01</leafValues></_>
        <_>
          <internalNodes>
            0 -1 33 -1432180830 -308363171 -259497953 -1556770663
            788955300 482967627 2045469033 -841004552</internalNodes>
          <leafValues>
            -6.4111471176147461e-01 2.9056218266487122e-01</leafValues></_>
        <_>
          <internalNodes>
            0 -1 40 -151763221 -268468353 1072166783 2041544295
            -134234642 -268992515 -25690627 -75499577</internalNodes>
          <leafValues>
            -3.3210092782974243e-01 5.8040720224380493e-01</leafValues></_></weakClassifiers></_>
    <!-- stage 17 -->
    <_>
      <maxWeakCount>6</maxWeakCount>
      <stageThreshold>-1.5836913585662842e+00</stageThreshold>
      <weakClassifiers>
        <_>
          <internalNodes>
            0 -1 84 -196617249 -354173764 -904167151 -678579944
            -1452637185 -2100623351 -368741661 -838867510</internalNodes>
          <leafValues>
            -8.0353635549545288e-01 -2.6440677046775818e-01</leafValues></_>
        <_>
          <internalNodes>
            0 -1 10 1333769422 467275988 1074192400 -476800694
            -1027265889 1476640967 -519806326 1536388731</internalNodes>
          <leafValues>
            -6.0054600238800049e-01 1.6455833613872528e-01</leafValues></_>
        <_>
          <internalNodes>
            0 -1 64 -834160678 -1777290468 1360015489 -175673055
            1055493562 -401927925 -375866708 -722343201</internalNodes>
          <leafValues>
            -4.5754200220108032e-01 3.5464516282081604e-01</leafValues></_>
        <_>
          <internalNodes>
            0 -1 79 -1876191843 -1129561645 1359043532 -1097919914
            831255710 -1146907981 1152233920 -1378159288</internalNodes>
          <leafValues>
            -5.2531087398529053e-01 3.2968792319297791e-01</leafValues></_>
        <_>
          <internalNodes>
            0 -1 80 1579345585 1048014714 -17825865 993509367 796907486
            -26509571 -2031701383 845151837</internalNodes>
          <leafValues>
            -4.0179905295372009e-01 4.4065606594085693e-01</leafValues></_>
        <_>
          <internalNodes>
            0 -1 55 -1001037389 -1396059937 -1055784783 -1711800229
            991538583 -607609972 -1735740755 -860811025</internalNodes>
          <leafValues>
            -4.4959938526153564e-01 4.1017389297485352e-01</leafValues></_></weakClassifiers></_>
    <!-- stage 18 -->
    <_>
      <maxWeakCount>6</maxWeakCount>
      <stageThreshold>-1.3576490879058838e+00</stageThreshold>
      <weakClassifiers>
        <_>
          <internalNodes>
            0 -1 13 -1713903105 -539770541 1527340253 -69758006
            -662381829 -56655603 -28317510 -641480205</internalNodes>
          <leafValues>
            -7.5432717800140381e-01 -9.8159506916999817e-02</leafValues></_>
        <_>
          <internalNodes>
            0 -1 25 -12097578 -297106144 1754648601 2141110741
            1297053951 -853760766 1912850613 -808191848</internalNodes>
          <leafValues>
            -5.7907336950302124e-01 1.8850573897361755e-01</leafValues></_>
        <_>
          <internalNodes>
            0 -1 83 9999023 -741518901 -1580744377 -1051765917 806077867
            461688935 -494702466 1509181861</internalNodes>
          <leafValues>
            -6.4425861835479736e-01 2.1813632547855377e-01</leafValues></_>
        <_>
          <internalNodes>
            0 -1 76 -483525999 -1044065830 -788262640 1966246451
            1930548157 1356447874 -415045740 -991832481</internalNodes>
          <leafValues>
            -5.2871501445770264e-01 2.9858452081680298e-01</leafValues></_>
        <_>
          <internalNodes>
            0 -1 0 -1705490898 2002272388 1342259264 -1168731245
            370805226 1795297672 -1062678078 150315052</internalNodes>
          <leafValues>
            -5.1547348499298096e-01 3.4688356518745422e-01</leafValues></_>
        <_>
          <internalNodes>
            0 -1 19 -799764374 -138067965 -720772901 -1206902570
            -752120829 -649363398 -1441007477 -1351428517</internalNodes>
          <leafValues>
            -5.8684778213500977e-01 2.8672090172767639e-01</leafValues></_></weakClassifiers></_>
    <!-- stage 19 -->
    <_>
      <maxWeakCount>6</maxWeakCount>
      <stageThreshold>-1.3063347339630127e+00</stageThreshold>
      <weakClassifiers>
        <_>
          <internalNodes>
            0 -1 82 -170142721 -607726885 1342296859 -170928414
            -1709251622 -491945801 -359798306 -71579221</internalNodes>
          <leafValues>
            -7.1200001239776611e-01 3.5042735934257507e-01</leafValues></_>
        <_>
          <internalNodes>
            0 -1 89 -1309412534 -1937271653 1694598557 -167081955
            1963852804 -1207959537 -1005874706 -197788917</internalNodes>
          <leafValues>
            -6.4835637807846069e-01 1.6199421882629395e-01</leafValues></_>
        <_>
          <internalNodes>
            0 -1 7 -963711182 1506017478 1627587869 -1903795070
            -1307581553 -450653521 1947454421 -949880556</internalNodes>
          <leafValues>
            -6.3161790370941162e-01 2.4625003337860107e-01</leafValues></_>
        <_>
          <internalNodes>
            0 -1 30 1891103650 -1542537210 -256602094 -943877281
            1317017751 1257078914 600831655 1174199123</internalNodes>
          <leafValues>
            -7.3928749561309814e-01 2.0305213332176208e-01</leafValues></_>
        <_>
          <internalNodes>
            0 -1 1 956436836 -201227741 50451205 426643164 2066623233
            939556897 456769685 292201321</internalNodes>
          <leafValues>
            -5.8419078588485718e-01 2.9655012488365173e-01</leafValues></_>
        <_>
          <internalNodes>
            0 -1 72 -242876174 -1955392688 422783062 -342441669
            -2130316905 -2062318464 1779091590 -777543321</internalNodes>
          <leafValues>
            -5.3751134872436523e-01 3.1802630424499512e-01</leafValues></_></weakClassifiers></_></stages>
  <features>
    <_>
      <rect>
        0 1 2 1</rect></_>
    <_>
      <rect>
        0 2 1 1</rect></_>
    <_>
      <rect>
        0 2 2 4</rect></_>
    <_>
      <rect>
        0 2 3 2</rect></_>
    <_>
      <rect>
        0 2 8 3</rect></_>
    <_>
      <rect>
        0 3 2 2</rect></_>
    <_>
      <rect>
        0 3 2 5</rect></_>
    <_>
      <rect>
        0 4 1 3</rect></_>
    <_>
      <rect>
        0 5 1 2</rect></_>
    <_>
      <rect>
        0 5 1 4</rect></_>
    <_>
      <rect>
        0 7 1 5</rect></_>
    <_>
      <rect>
        0 8 1 2</rect></_>
    <_>
      <rect>
        0 10 1 3</rect></_>
    <_>
      <rect>
        0 10 3 2</rect></_>
    <_>
      <rect>
        0 13 1 2</rect></_>
    <_>
      <rect>
        0 14 1 2</rect></_>
    <_>
      <rect>
        0 15 2 2</rect></_>
    <_>
      <rect>
        0 16 1 1</rect></_>
    <_>
      <rect>
        0 17 2 2</rect></_>
    <_>
      <rect>
        0 17 3 2</rect></_>
    <_>
      <rect>
        0 18 1 1</rect></_>
    <_>
      <rect>
        0 18 3 2</rect></_>
    <_>
      <rect>
        1 0 2 3</rect></_>
    <_>
      <rect>
        1 0 3 2</rect></_>
    <_>
      <rect>
        1 0 4 2</rect></_>
    <_>
      <rect>
        1 4 1 1</rect></_>
    <_>
      <rect>
        1 17 1 1</rect></_>
    <_>
      <rect>
        1 17 2 2</rect></_>
    <_>
      <rect>
        2 0 1 1</rect></_>
    <_>
      <rect>
        2 0 6 2</rect></_>
    <_>
      <rect>
        2 2 2 1</rect></_>
    <_>
      <rect>
        2 17 1 1</rect></_>
    <_>
      <rect>
        2 21 4 1</rect></_>
    <_>
      <rect>
        3 0 2 2</rect></_>
    <_>
      <rect>
        3 2 2 3</rect></_>
    <_>
      <rect>
        3 6 7 4</rect></_>
    <_>
      <rect>
        3 21 3 1</rect></_>
    <_>
      <rect>
        4 0 2 1</rect></_>
    <_>
      <rect>
        4 18 1 2</rect></_>
    <_>
      <rect>
        4 20 1 1</rect></_>
    <_>
      <rect>
        4 21 1 1</rect></_>
    <_>
      <rect>
        4 21 2 1</rect></_>
    <_>
      <rect>
        5 21 3 1</rect></_>
    <_>
      <rect>
        6 0 3 1</rect></_>
    <_>
      <rect>
        6 3 3 3</rect></_>
    <_>
      <rect>
        6 21 1 1</rect></_>
    <_>
      <rect>
        7 0 1 1</rect></_>
    <_>
      <rect>
        8 0 2 1</rect></_>
    <_>
      <rect>
        8 0 5 1</rect></_>
    <_>
      <rect>
        8 0 5 2</rect></_>
    <_>
      <rect>
        8 8 2 4</rect></_>
    <_>
      <rect>
        8 21 5 1</rect></_>
    <_>
      <rect>
        9 8 2 1</rect></_>
    <_>
      <rect>
        9 21 4 1</rect></_>
    <_>
      <rect>
        10 0 3 1</rect></_>
    <_>
      <rect>
        10 21 4 1</rect></_>
    <_>
      <rect>
        11 0 1 1</rect></_>
    <_>
      <rect>
        11 21 4 1</rect></_>
    <_>
      <rect>
        12 10 1 1</rect></_>
    <_>
      <rect>
        13 9 2 2</rect></_>
    <_>
      <rect>
        14 0 2 1</rect></_>
    <_>
      <rect>
        15 0 3 3</rect></_>
    <_>
      <rect>
        15 2 3 1</rect></_>
    <_>
      <rect>
        15 4 3 6</rect></_>
    <_>
      <rect>
        15 5 3 4</rect></_>
    <_>
      <rect>
        15 18 2 2</rect></_>
    <_>
      <rect>
        15 19 3 1</rect></_>
    <_>
      <rect>
        15 21 1 1</rect></_>
    <_>
      <rect>
        16 0 1 1</rect></_>
    <_>
      <rect>
        16 2 1 1</rect></_>
    <_>
      <rect>
        16 18 2 2</rect></_>
    <_>
      <rect>
        17 0 2 2</rect></_>
    <_>
      <rect>
        17 19 2 1</rect></_>
    <_>
      <rect>
        18 2 2 2</rect></_>
    <_>
      <rect>
        18 4 2 1</rect></_>
    <_>
      <rect>
        18 5 2 5</rect></_>
    <_>
      <rect>
        18 8 2 3</rect></_>
    <_>
      <rect>
        18 15 2 2</rect></_>
    <_>
      <rect>
        18 16 2 2</rect></_>
    <_>
      <rect>
        18 19 1 1</rect></_>
    <_>
      <rect>
        20 2 1 1</rect></_>
    <_>
      <rect>
        20 4 1 1</rect></_>
    <_>
      <rect>
        20 6 1 1</rect></_>
    <_>
      <rect>
        20 15 1 3</rect></_>
    <_>
      <rect>
        20 17 1 1</rect></_>
    <_>
      <rect>
        21 3 1 2</rect></_>
    <_>
      <rect>
        21 4 1 6</rect></_>
    <_>
      <rect>
        21 5 1 2</rect></_>
    <_>
      <rect>
        21 6 1 1</rect></_>
    <_>
      <rect>
        21 6 1 2</rect></_>
    <_>
      <rect>
        21 6 1 6</rect></_>
    <_>
      <rect>
        21 9 1 2</rect></_>
    <_>
      <rect>
        21 11 1 3</rect></_>
    <_>
      <rect>
        21 12 1 2</rect></_>
    <_>
      <rect>
        21 15 1 1</rect></_></features></cascade>
</opencv_storage>
