<?xml version="1.0"?>
<opencv_storage>
<stage13>
  <maxWeakCount>6</maxWeakCount>
  <stageThreshold>-1.8386175632476807e+00</stageThreshold>
  <weakClassifiers>
    <_>
      <internalNodes>
        0 -1 8440 -545259521 -1248592993 -985597809 -578423653
        -250904321 -132197489 -104621092 -289</internalNodes>
      <leafValues>
        -7.5145423412322998e-01 1.6814158856868744e-01</leafValues></_>
    <_>
      <internalNodes>
        0 -1 187 1826553470 -807223140 1342388679 -580681576 -804522085
        -628113277 -1229493287 -180126861</internalNodes>
      <leafValues>
        -6.6691499948501587e-01 2.2357524931430817e-01</leafValues></_>
    <_>
      <internalNodes>
        0 -1 7419 1597917673 -126332521 -1273915684 2021277661 713408256
        2134017066 175032444 -194533378</internalNodes>
      <leafValues>
        -6.9681179523468018e-01 2.5631356239318848e-01</leafValues></_>
    <_>
      <internalNodes>
        0 -1 6439 -1059073601 -1567492397 2031769054 -1344429994
        -399303171 -321016878 176531373 -990120998</internalNodes>
      <leafValues>
        -5.0636148452758789e-01 3.8944119215011597e-01</leafValues></_>
    <_>
      <internalNodes>
        0 -1 5509 -128238673 -1225621281 -111611500 -1227188578
        1218443382 1209533098 2129362324 -197987884</internalNodes>
      <leafValues>
        -6.2462782859802246e-01 3.3182013034820557e-01</leafValues></_>
    <_>
      <internalNodes>
        0 -1 683 -1739603213 -36170611 -1056144997 313167960 -1051520739
        -53507691 -1157051969 -227045249</internalNodes>
      <leafValues>
        -5.0202053785324097e-01 3.9799186587333679e-01</leafValues></_></weakClassifiers></stage13>
</opencv_storage>
