<?xml version="1.0"?>
<opencv_storage>
<stage16>
  <maxWeakCount>6</maxWeakCount>
  <stageThreshold>-1.5937731266021729e+00</stageThreshold>
  <weakClassifiers>
    <_>
      <internalNodes>
        0 -1 498 -606078209 -1156188806 -1070866281 -147156858
        -1828494802 1813119139 -1693463558 -8394753</internalNodes>
      <leafValues>
        -7.7191978693008423e-01 -9.6774190664291382e-02</leafValues></_>
    <_>
      <internalNodes>
        0 -1 2676 -309863957 -16645416 533779897 1572073729 1587149283
        -609615717 1284119037 -973106221</internalNodes>
      <leafValues>
        -5.0375974178314209e-01 2.9793217778205872e-01</leafValues></_>
    <_>
      <internalNodes>
        0 -1 1975 -515387857 -438480520 -1055208994 814674296 1623200078
        -503259566 2133379420 -500017639</internalNodes>
      <leafValues>
        -6.7046785354614258e-01 2.4957594275474548e-01</leafValues></_>
    <_>
      <internalNodes>
        0 -1 1380 2130979384 -103334076 -1957473130 445412746 -159227487
        -1142225701 -762956741 605877491</internalNodes>
      <leafValues>
        -5.2613085508346558e-01 3.1019639968872070e-01</leafValues></_>
    <_>
      <internalNodes>
        0 -1 2033 -1432180830 -308363171 -259497953 -1556770663
        788955300 482967627 2045469033 -841004552</internalNodes>
      <leafValues>
        -6.4111471176147461e-01 2.9056218266487122e-01</leafValues></_>
    <_>
      <internalNodes>
        0 -1 3214 -151763221 -268468353 1072166783 2041544295 -134234642
        -268992515 -25690627 -75499577</internalNodes>
      <leafValues>
        -3.3210092782974243e-01 5.8040720224380493e-01</leafValues></_></weakClassifiers></stage16>
</opencv_storage>
