<?xml version="1.0"?>
<opencv_storage>
<stage19>
  <maxWeakCount>6</maxWeakCount>
  <stageThreshold>-1.3063347339630127e+00</stageThreshold>
  <weakClassifiers>
    <_>
      <internalNodes>
        0 -1 8321 -170142721 -607726885 1342296859 -170928414
        -1709251622 -491945801 -359798306 -71579221</internalNodes>
      <leafValues>
        -7.1200001239776611e-01 3.5042735934257507e-01</leafValues></_>
    <_>
      <internalNodes>
        0 -1 8414 -1309412534 -1937271653 1694598557 -167081955
        1963852804 -1207959537 -1005874706 -197788917</internalNodes>
      <leafValues>
        -6.4835637807846069e-01 1.6199421882629395e-01</leafValues></_>
    <_>
      <internalNodes>
        0 -1 234 -963711182 1506017478 1627587869 -1903795070
        -1307581553 -450653521 1947454421 -949880556</internalNodes>
      <leafValues>
        -6.3161790370941162e-01 2.4625003337860107e-01</leafValues></_>
    <_>
      <internalNodes>
        0 -1 1492 1891103650 -1542537210 -256602094 -943877281
        1317017751 1257078914 600831655 1174199123</internalNodes>
      <leafValues>
        -7.3928749561309814e-01 2.0305213332176208e-01</leafValues></_>
    <_>
      <internalNodes>
        0 -1 120 956436836 -201227741 50451205 426643164 2066623233
        939556897 456769685 292201321</internalNodes>
      <leafValues>
        -5.8419078588485718e-01 2.9655012488365173e-01</leafValues></_>
    <_>
      <internalNodes>
        0 -1 7999 -242876174 -1955392688 422783062 -342441669
        -2130316905 -2062318464 1779091590 -777543321</internalNodes>
      <leafValues>
        -5.3751134872436523e-01 3.1802630424499512e-01</leafValues></_></weakClassifiers></stage19>
</opencv_storage>
