<?xml version="1.0"?>
<opencv_storage>
<stage4>
  <maxWeakCount>5</maxWeakCount>
  <stageThreshold>-1.6151027679443359e+00</stageThreshold>
  <weakClassifiers>
    <_>
      <internalNodes>
        0 -1 71404 1.8114520236849785e-02</internalNodes>
      <leafValues>
        -8.9161098003387451e-01 -7.6335878111422062e-03</leafValues></_>
    <_>
      <internalNodes>
        0 -1 158486 -1.9648693501949310e-02</internalNodes>
      <leafValues>
        2.6010176539421082e-01 -6.7094832658767700e-01</leafValues></_>
    <_>
      <internalNodes>
        0 -1 4264 3.6915715783834457e-02</internalNodes>
      <leafValues>
        -4.1490605473518372e-01 4.6259415149688721e-01</leafValues></_>
    <_>
      <internalNodes>
        0 -1 38037 4.1741980239748955e-03</internalNodes>
      <leafValues>
        1.7883792519569397e-01 -8.5057896375656128e-01</leafValues></_>
    <_>
      <internalNodes>
        0 -1 38965 -2.7386210858821869e-03</internalNodes>
      <leafValues>
        -7.5824242830276489e-01 1.8352465331554413e-01</leafValues></_></weakClassifiers></stage4>
</opencv_storage>
