<?xml version="1.0"?>
<opencv_storage>
<stage16>
  <maxWeakCount>10</maxWeakCount>
  <stageThreshold>-1.6558389663696289e+00</stageThreshold>
  <weakClassifiers>
    <_>
      <internalNodes>
        0 -1 12267 -1.4379306696355343e-02</internalNodes>
      <leafValues>
        -1.2328767031431198e-01 -8.4911030530929565e-01</leafValues></_>
    <_>
      <internalNodes>
        0 -1 155787 -1.4857570640742779e-03</internalNodes>
      <leafValues>
        1.7059519886970520e-01 -5.0656849145889282e-01</leafValues></_>
    <_>
      <internalNodes>
        0 -1 25423 -2.2590029984712601e-02</internalNodes>
      <leafValues>
        3.1854847073554993e-01 -2.8398555517196655e-01</leafValues></_>
    <_>
      <internalNodes>
        0 -1 159833 6.6615722607821226e-04</internalNodes>
      <leafValues>
        1.5658761560916901e-01 -6.1423105001449585e-01</leafValues></_>
    <_>
      <internalNodes>
        0 -1 2133 5.2268372382968664e-04</internalNodes>
      <leafValues>
        1.5562629699707031e-01 -6.2505364418029785e-01</leafValues></_>
    <_>
      <internalNodes>
        0 -1 104491 1.4911057427525520e-02</internalNodes>
      <leafValues>
        8.9850939810276031e-02 -7.5767791271209717e-01</leafValues></_>
    <_>
      <internalNodes>
        0 -1 127483 -1.7044003470800817e-04</internalNodes>
      <leafValues>
        1.3682797551155090e-01 -4.7317528724670410e-01</leafValues></_>
    <_>
      <internalNodes>
        0 -1 1044 1.7630171030759811e-02</internalNodes>
      <leafValues>
        -1.9212126731872559e-01 3.8392704725265503e-01</leafValues></_>
    <_>
      <internalNodes>
        0 -1 70561 4.6329508768394589e-04</internalNodes>
      <leafValues>
        -1.6829077899456024e-01 4.4003450870513916e-01</leafValues></_>
    <_>
      <internalNodes>
        0 -1 152257 -1.7541997134685516e-02</internalNodes>
      <leafValues>
        -7.7070373296737671e-01 9.4885870814323425e-02</leafValues></_></weakClassifiers></stage16>
</opencv_storage>
