<?xml version="1.0"?>
<opencv_storage>
<stage3>
  <maxWeakCount>6</maxWeakCount>
  <stageThreshold>-2.0729236304759979e-01</stageThreshold>
  <weakClassifiers>
    <_>
      <internalNodes>
        0 -1 126637 -5.3916247561573982e-03</internalNodes>
      <leafValues>
        -4.4897958636283875e-01 4.8605579137802124e-01</leafValues></_>
    <_>
      <internalNodes>
        0 -1 14341 3.7941452115774155e-02</internalNodes>
      <leafValues>
        -2.5518459081649780e-01 6.0025686025619507e-01</leafValues></_>
    <_>
      <internalNodes>
        0 -1 161673 8.9194402098655701e-03</internalNodes>
      <leafValues>
        -1.5505531430244446e-01 9.1484570503234863e-01</leafValues></_>
    <_>
      <internalNodes>
        0 -1 114243 -5.7169864885509014e-04</internalNodes>
      <leafValues>
        4.2243218421936035e-01 -3.5069626569747925e-01</leafValues></_>
    <_>
      <internalNodes>
        0 -1 161671 -6.7133838310837746e-03</internalNodes>
      <leafValues>
        7.1841770410537720e-01 -2.2964133322238922e-01</leafValues></_>
    <_>
      <internalNodes>
        0 -1 46082 4.3263586121611297e-04</internalNodes>
      <leafValues>
        2.9722937941551208e-01 -6.0210782289505005e-01</leafValues></_></weakClassifiers></stage3>
</opencv_storage>
