<?xml version="1.0"?>
<opencv_storage>
<stage4>
  <maxWeakCount>7</maxWeakCount>
  <stageThreshold>1.9505870342254639e-01</stageThreshold>
  <weakClassifiers>
    <_>
      <internalNodes>
        0 -1 61166 2.8350487351417542e-02</internalNodes>
      <leafValues>
        8.8669948279857635e-02 8.4536081552505493e-01</leafValues></_>
    <_>
      <internalNodes>
        0 -1 60368 -8.9392671361565590e-04</internalNodes>
      <leafValues>
        5.1013243198394775e-01 -2.1463236212730408e-01</leafValues></_>
    <_>
      <internalNodes>
        0 -1 70700 -9.3650780618190765e-03</internalNodes>
      <leafValues>
        7.4839073419570923e-01 -1.9073219597339630e-01</leafValues></_>
    <_>
      <internalNodes>
        0 -1 161724 5.4812142625451088e-03</internalNodes>
      <leafValues>
        -2.0841510593891144e-01 6.2277048826217651e-01</leafValues></_>
    <_>
      <internalNodes>
        0 -1 158624 -1.4674067497253418e-02</internalNodes>
      <leafValues>
        6.6102921962738037e-01 -2.0152628421783447e-01</leafValues></_>
    <_>
      <internalNodes>
        0 -1 49284 1.6116574406623840e-02</internalNodes>
      <leafValues>
        -1.8484747409820557e-01 7.3072361946105957e-01</leafValues></_>
    <_>
      <internalNodes>
        0 -1 58161 -5.8379885740578175e-04</internalNodes>
      <leafValues>
        3.8177737593650818e-01 -3.9382395148277283e-01</leafValues></_></weakClassifiers></stage4>
</opencv_storage>
