<?xml version="1.0"?>
<opencv_storage>
<stage10>
  <maxWeakCount>5</maxWeakCount>
  <stageThreshold>-3.7001263350248337e-02</stageThreshold>
  <weakClassifiers>
    <_>
      <internalNodes>
        0 -1 148948 -3.8089063018560410e-03</internalNodes>
      <leafValues>
        7.6819407939910889e-01 -9.2348285019397736e-02</leafValues></_>
    <_>
      <internalNodes>
        0 -1 99 7.9051777720451355e-03</internalNodes>
      <leafValues>
        -1.5060198307037354e-01 6.5155071020126343e-01</leafValues></_>
    <_>
      <internalNodes>
        0 -1 13245 -7.0499017834663391e-02</internalNodes>
      <leafValues>
        8.1819945573806763e-01 -1.6485309600830078e-01</leafValues></_>
    <_>
      <internalNodes>
        0 -1 139711 1.2212232686579227e-03</internalNodes>
      <leafValues>
        -1.9476030766963959e-01 6.0871595144271851e-01</leafValues></_>
    <_>
      <internalNodes>
        0 -1 80697 -1.0928679257631302e-03</internalNodes>
      <leafValues>
        5.6556242704391479e-01 -1.8794798851013184e-01</leafValues></_></weakClassifiers></stage10>
</opencv_storage>
