<?xml version="1.0"?>
<opencv_storage>
<stage0>
  <maxWeakCount>9</maxWeakCount>
  <stageThreshold>-1.4234530925750732e+00</stageThreshold>
  <weakClassifiers>
    <_>
      <internalNodes>
        0 -1 71444 1.1666281148791313e-02</internalNodes>
      <leafValues>
        -3.4883719682693481e-01 9.1715973615646362e-01</leafValues></_>
    <_>
      <internalNodes>
        0 -1 76065 -1.7044272273778915e-02</internalNodes>
      <leafValues>
        4.3938738107681274e-01 -4.7629570960998535e-01</leafValues></_>
    <_>
      <internalNodes>
        0 -1 4206 -3.0676979571580887e-02</internalNodes>
      <leafValues>
        8.0068713426589966e-01 -2.0232795178890228e-01</leafValues></_>
    <_>
      <internalNodes>
        0 -1 23161 -1.5706783533096313e-01</internalNodes>
      <leafValues>
        8.6019122600555420e-01 -2.2387884557247162e-01</leafValues></_>
    <_>
      <internalNodes>
        0 -1 19563 -1.5601021051406860e-01</internalNodes>
      <leafValues>
        7.2475260496139526e-01 -1.7566075921058655e-01</leafValues></_>
    <_>
      <internalNodes>
        0 -1 5040 7.2322143241763115e-03</internalNodes>
      <leafValues>
        -1.5052813291549683e-01 7.8619676828384399e-01</leafValues></_>
    <_>
      <internalNodes>
        0 -1 148218 1.2376114726066589e-02</internalNodes>
      <leafValues>
        -2.1816104650497437e-01 6.0549736022949219e-01</leafValues></_>
    <_>
      <internalNodes>
        0 -1 106281 -2.8755929088220000e-04</internalNodes>
      <leafValues>
        4.0631175041198730e-01 -3.9088222384452820e-01</leafValues></_>
    <_>
      <internalNodes>
        0 -1 1049 5.3508780896663666e-02</internalNodes>
      <leafValues>
        -1.7360615730285645e-01 7.4832957983016968e-01</leafValues></_></weakClassifiers></stage0>
</opencv_storage>
