<?xml version="1.0"?>
<opencv_storage>
<stage8>
  <maxWeakCount>11</maxWeakCount>
  <stageThreshold>-1.4945608377456665e+00</stageThreshold>
  <weakClassifiers>
    <_>
      <internalNodes>
        0 -1 13204 8.9233028120361269e-05</internalNodes>
      <leafValues>
        -5.4838711023330688e-01 8.5714286565780640e-01</leafValues></_>
    <_>
      <internalNodes>
        0 -1 70559 -4.1279003198724240e-05</internalNodes>
      <leafValues>
        7.9572993516921997e-01 -4.9978798627853394e-01</leafValues></_>
    <_>
      <internalNodes>
        0 -1 161840 1.7823660746216774e-03</internalNodes>
      <leafValues>
        -2.9771038889884949e-01 1.</leafValues></_>
    <_>
      <internalNodes>
        0 -1 40893 -3.1130031857173890e-05</internalNodes>
      <leafValues>
        7.7709591388702393e-01 -3.7881815433502197e-01</leafValues></_>
    <_>
      <internalNodes>
        0 -1 82204 3.8342631887644529e-04</internalNodes>
      <leafValues>
        3.9443412423133850e-01 -9.0539550781250000e-01</leafValues></_>
    <_>
      <internalNodes>
        0 -1 150736 -1.4173518866300583e-04</internalNodes>
      <leafValues>
        9.3278151750564575e-01 -3.2323697209358215e-01</leafValues></_>
    <_>
      <internalNodes>
        0 -1 126390 -6.6647154744714499e-04</internalNodes>
      <leafValues>
        -9.5123404264450073e-01 3.1473889946937561e-01</leafValues></_>
    <_>
      <internalNodes>
        0 -1 56286 8.2154896517749876e-05</internalNodes>
      <leafValues>
        -2.8606510162353516e-01 8.3109027147293091e-01</leafValues></_>
    <_>
      <internalNodes>
        0 -1 153385 -1.9373842515051365e-03</internalNodes>
      <leafValues>
        -1. 1.3111017644405365e-01</leafValues></_>
    <_>
      <internalNodes>
        0 -1 156139 2.8375527472235262e-04</internalNodes>
      <leafValues>
        -1.7491808533668518e-01 1.</leafValues></_>
    <_>
      <internalNodes>
        0 -1 50167 1.0097708553075790e-01</internalNodes>
      <leafValues>
        1.7407970130443573e-01 -8.9039033651351929e-01</leafValues></_></weakClassifiers></stage8>
</opencv_storage>
