<?xml version="1.0"?>
<opencv_storage>
<stage12>
  <maxWeakCount>8</maxWeakCount>
  <stageThreshold>-1.3982013463973999e+00</stageThreshold>
  <weakClassifiers>
    <_>
      <internalNodes>
        0 -1 75177 -8.9129287516698241e-05</internalNodes>
      <leafValues>
        5.5000001192092896e-01 -6.3999998569488525e-01</leafValues></_>
    <_>
      <internalNodes>
        0 -1 65406 -4.9701179377734661e-03</internalNodes>
      <leafValues>
        7.5571256875991821e-01 -5.0577497482299805e-01</leafValues></_>
    <_>
      <internalNodes>
        0 -1 145350 -4.9285084969596937e-05</internalNodes>
      <leafValues>
        6.6448569297790527e-01 -4.9308136105537415e-01</leafValues></_>
    <_>
      <internalNodes>
        0 -1 104929 4.0004029870033264e-02</internalNodes>
      <leafValues>
        3.8611462712287903e-01 -1.</leafValues></_>
    <_>
      <internalNodes>
        0 -1 80739 7.2593824006617069e-04</internalNodes>
      <leafValues>
        -3.7836414575576782e-01 8.8957387208938599e-01</leafValues></_>
    <_>
      <internalNodes>
        0 -1 115533 -1.5559123130515218e-03</internalNodes>
      <leafValues>
        -1. 3.3790424466133118e-01</leafValues></_>
    <_>
      <internalNodes>
        0 -1 82039 -7.7381140727084130e-05</internalNodes>
      <leafValues>
        7.3304396867752075e-01 -3.9025950431823730e-01</leafValues></_>
    <_>
      <internalNodes>
        0 -1 152689 2.8209928132127970e-05</internalNodes>
      <leafValues>
        2.8525975346565247e-01 -8.8129192590713501e-01</leafValues></_></weakClassifiers></stage12>
</opencv_storage>
