<?xml version="1.0"?>
<opencv_storage>
<stage3>
  <maxWeakCount>10</maxWeakCount>
  <stageThreshold>-9.9956732988357544e-01</stageThreshold>
  <weakClassifiers>
    <_>
      <internalNodes>
        0 -1 38832 5.5736422538757324e-02</internalNodes>
      <leafValues>
        -4.5171338319778442e-01 5.6962025165557861e-01</leafValues></_>
    <_>
      <internalNodes>
        0 -1 71454 -1.1105555295944214e-01</internalNodes>
      <leafValues>
        6.8641263246536255e-01 -1.7171382904052734e-01</leafValues></_>
    <_>
      <internalNodes>
        0 -1 120196 -7.8790402039885521e-04</internalNodes>
      <leafValues>
        3.0169075727462769e-01 -3.6078092455863953e-01</leafValues></_>
    <_>
      <internalNodes>
        0 -1 160226 -4.1048051789402962e-03</internalNodes>
      <leafValues>
        4.7367805242538452e-01 -1.8318837881088257e-01</leafValues></_>
    <_>
      <internalNodes>
        0 -1 160574 4.3995375744998455e-03</internalNodes>
      <leafValues>
        -1.9498015940189362e-01 5.4596167802810669e-01</leafValues></_>
    <_>
      <internalNodes>
        0 -1 11538 -6.3783973455429077e-03</internalNodes>
      <leafValues>
        4.2026016116142273e-01 -1.9479021430015564e-01</leafValues></_>
    <_>
      <internalNodes>
        0 -1 138729 -2.7189090847969055e-02</internalNodes>
      <leafValues>
        5.9047931432723999e-01 -1.4372047781944275e-01</leafValues></_>
    <_>
      <internalNodes>
        0 -1 128049 -2.1859889384359121e-03</internalNodes>
      <leafValues>
        -7.4675279855728149e-01 1.0844562947750092e-01</leafValues></_>
    <_>
      <internalNodes>
        0 -1 89588 -4.4677983969449997e-03</internalNodes>
      <leafValues>
        -6.8620270490646362e-01 1.4146536588668823e-01</leafValues></_>
    <_>
      <internalNodes>
        0 -1 155177 2.8689028695225716e-03</internalNodes>
      <leafValues>
        -2.8279072046279907e-01 3.7243941426277161e-01</leafValues></_></weakClassifiers></stage3>
</opencv_storage>
