<?xml version="1.0"?>
<opencv_storage>
<stage2>
  <maxWeakCount>6</maxWeakCount>
  <stageThreshold>-1.0964137315750122e+00</stageThreshold>
  <weakClassifiers>
    <_>
      <internalNodes>
        0 -1 99700 -1.2639671331271529e-04</internalNodes>
      <leafValues>
        6.8750000000000000e-01 -5.5172413587570190e-01</leafValues></_>
    <_>
      <internalNodes>
        0 -1 8294 -7.3264463571831584e-04</internalNodes>
      <leafValues>
        6.3850086927413940e-01 -4.5232310891151428e-01</leafValues></_>
    <_>
      <internalNodes>
        0 -1 134215 3.8427100662374869e-05</internalNodes>
      <leafValues>
        -4.4843542575836182e-01 7.1784919500350952e-01</leafValues></_>
    <_>
      <internalNodes>
        0 -1 96789 -2.2612856992054731e-04</internalNodes>
      <leafValues>
        -8.3779996633529663e-01 4.5386460423469543e-01</leafValues></_>
    <_>
      <internalNodes>
        0 -1 105373 -5.0268092309124768e-05</internalNodes>
      <leafValues>
        7.0413416624069214e-01 -5.1974165439605713e-01</leafValues></_>
    <_>
      <internalNodes>
        0 -1 69981 -1.2194724986329675e-03</internalNodes>
      <leafValues>
        -8.4227073192596436e-01 4.2194595932960510e-01</leafValues></_></weakClassifiers></stage2>
</opencv_storage>
