<?xml version="1.0"?>
<opencv_storage>
<stage15>
  <maxWeakCount>23</maxWeakCount>
  <stageThreshold>-1.1951441764831543e+00</stageThreshold>
  <weakClassifiers>
    <_>
      <internalNodes>
        0 -1 152164 -5.9035490266978741e-04</internalNodes>
      <leafValues>
        2.1243523061275482e-01 -3.9703458547592163e-01</leafValues></_>
    <_>
      <internalNodes>
        0 -1 40673 8.0140412319451571e-04</internalNodes>
      <leafValues>
        -1.3532517850399017e-01 5.4546666145324707e-01</leafValues></_>
    <_>
      <internalNodes>
        0 -1 40673 -7.2886596899479628e-04</internalNodes>
      <leafValues>
        5.4102742671966553e-01 -1.6698007285594940e-01</leafValues></_>
    <_>
      <internalNodes>
        0 -1 11037 -1.9801300950348377e-03</internalNodes>
      <leafValues>
        4.6332868933677673e-01 -1.0355944186449051e-01</leafValues></_>
    <_>
      <internalNodes>
        0 -1 162101 2.3966110893525183e-04</internalNodes>
      <leafValues>
        1.5778386592864990e-01 -3.9752069115638733e-01</leafValues></_>
    <_>
      <internalNodes>
        0 -1 162100 -5.4343667579814792e-04</internalNodes>
      <leafValues>
        -4.8892867565155029e-01 1.5988565981388092e-01</leafValues></_>
    <_>
      <internalNodes>
        0 -1 158589 -4.4438163749873638e-03</internalNodes>
      <leafValues>
        4.7429892420768738e-01 -1.4554016292095184e-01</leafValues></_>
    <_>
      <internalNodes>
        0 -1 160567 -3.0567897483706474e-03</internalNodes>
      <leafValues>
        3.9572110772132874e-01 -1.8132477998733521e-01</leafValues></_>
    <_>
      <internalNodes>
        0 -1 98894 1.1400643736124039e-02</internalNodes>
      <leafValues>
        1.3932470977306366e-01 -6.0738259553909302e-01</leafValues></_>
    <_>
      <internalNodes>
        0 -1 60762 2.1960232406854630e-03</internalNodes>
      <leafValues>
        -2.9064005613327026e-01 2.0376116037368774e-01</leafValues></_>
    <_>
      <internalNodes>
        0 -1 144129 -2.3695514537394047e-03</internalNodes>
      <leafValues>
        3.2456108927726746e-01 -2.0175039768218994e-01</leafValues></_>
    <_>
      <internalNodes>
        0 -1 147944 -1.1676147114485502e-03</internalNodes>
      <leafValues>
        -4.9431851506233215e-01 1.5053373575210571e-01</leafValues></_>
    <_>
      <internalNodes>
        0 -1 161091 -9.2254590708762407e-04</internalNodes>
      <leafValues>
        6.4403533935546875e-01 -1.2566146254539490e-01</leafValues></_>
    <_>
      <internalNodes>
        0 -1 161064 7.5112306512892246e-04</internalNodes>
      <leafValues>
        -1.7642515897750854e-01 3.5282504558563232e-01</leafValues></_>
    <_>
      <internalNodes>
        0 -1 160957 9.4338338822126389e-03</internalNodes>
      <leafValues>
        8.0552853643894196e-02 -8.8273966312408447e-01</leafValues></_>
    <_>
      <internalNodes>
        0 -1 160651 3.4167359117418528e-03</internalNodes>
      <leafValues>
        -1.8456897139549255e-01 3.9958432316780090e-01</leafValues></_>
    <_>
      <internalNodes>
        0 -1 125374 3.2238843850791454e-03</internalNodes>
      <leafValues>
        1.3257357478141785e-01 -5.2470314502716064e-01</leafValues></_>
    <_>
      <internalNodes>
        0 -1 105600 -1.1398394126445055e-03</internalNodes>
      <leafValues>
        1.7802155017852783e-01 -3.1900924444198608e-01</leafValues></_>
    <_>
      <internalNodes>
        0 -1 154514 -4.3954243883490562e-03</internalNodes>
      <leafValues>
        -8.4048241376876831e-01 7.5057052075862885e-02</leafValues></_>
    <_>
      <internalNodes>
        0 -1 62074 -1.3481203932315111e-03</internalNodes>
      <leafValues>
        6.4859282970428467e-01 -1.0060053318738937e-01</leafValues></_>
    <_>
      <internalNodes>
        0 -1 17179 -6.1586510855704546e-04</internalNodes>
      <leafValues>
        5.0720328092575073e-01 -1.2147463113069534e-01</leafValues></_>
    <_>
      <internalNodes>
        0 -1 129804 -1.8200104823336005e-03</internalNodes>
      <leafValues>
        2.4552316963672638e-01 -2.3656548559665680e-01</leafValues></_>
    <_>
      <internalNodes>
        0 -1 10598 9.4347988488152623e-04</internalNodes>
      <leafValues>
        1.0139653831720352e-01 -5.5898272991180420e-01</leafValues></_></weakClassifiers></stage15>
</opencv_storage>
