<?xml version="1.0"?>
<opencv_storage>
<stage1>
  <maxWeakCount>11</maxWeakCount>
  <stageThreshold>-9.6605235338211060e-01</stageThreshold>
  <weakClassifiers>
    <_>
      <internalNodes>
        0 -1 61164 1.2370824813842773e-02</internalNodes>
      <leafValues>
        -3.2499998807907104e-01 7.4444442987442017e-01</leafValues></_>
    <_>
      <internalNodes>
        0 -1 56753 -8.0416374839842319e-04</internalNodes>
      <leafValues>
        3.2071205973625183e-01 -4.3295785784721375e-01</leafValues></_>
    <_>
      <internalNodes>
        0 -1 6697 -6.0128308832645416e-03</internalNodes>
      <leafValues>
        6.7406761646270752e-01 -2.1908792853355408e-01</leafValues></_>
    <_>
      <internalNodes>
        0 -1 146368 -2.0961856469511986e-02</internalNodes>
      <leafValues>
        3.9816287159919739e-01 -3.3334508538246155e-01</leafValues></_>
    <_>
      <internalNodes>
        0 -1 81371 -3.2219521701335907e-02</internalNodes>
      <leafValues>
        8.4745955467224121e-01 -1.3246646523475647e-01</leafValues></_>
    <_>
      <internalNodes>
        0 -1 134535 -7.4273422360420227e-02</internalNodes>
      <leafValues>
        5.6123238801956177e-01 -1.8803876638412476e-01</leafValues></_>
    <_>
      <internalNodes>
        0 -1 123639 -3.4594260156154633e-02</internalNodes>
      <leafValues>
        5.7176905870437622e-01 -2.5282138586044312e-01</leafValues></_>
    <_>
      <internalNodes>
        0 -1 8914 1.8813902512192726e-02</internalNodes>
      <leafValues>
        1.9015003740787506e-01 -9.0718150138854980e-01</leafValues></_>
    <_>
      <internalNodes>
        0 -1 1317 5.3179755806922913e-02</internalNodes>
      <leafValues>
        -1.9400599598884583e-01 7.4747979640960693e-01</leafValues></_>
    <_>
      <internalNodes>
        0 -1 3397 -8.0630458891391754e-02</internalNodes>
      <leafValues>
        7.5696760416030884e-01 -1.3507933914661407e-01</leafValues></_>
    <_>
      <internalNodes>
        0 -1 97108 -3.0371834873221815e-04</internalNodes>
      <leafValues>
        3.0293053388595581e-01 -3.3311122655868530e-01</leafValues></_></weakClassifiers></stage1>
</opencv_storage>
