<?xml version="1.0"?>
<opencv_storage>
<stage18>
  <maxWeakCount>100</maxWeakCount>
  <stageThreshold>-1.7776740789413452e+00</stageThreshold>
  <weakClassifiers>
    <_>
      <internalNodes>
        0 -1 40903 -7.7753844379913062e-05</internalNodes>
      <leafValues>
        7.7142858505249023e-01 -6.7272728681564331e-01</leafValues></_>
    <_>
      <internalNodes>
        0 -1 148001 -1.0248681792290881e-04</internalNodes>
      <leafValues>
        9.5835733413696289e-01 -5.9732204675674438e-01</leafValues></_>
    <_>
      <internalNodes>
        0 -1 137864 1.1246859503444284e-04</internalNodes>
      <leafValues>
        -3.2689332962036133e-01 9.6156001091003418e-01</leafValues></_>
    <_>
      <internalNodes>
        0 -1 130224 -1.2654458987526596e-04</internalNodes>
      <leafValues>
        9.2225593328475952e-01 -2.6638051867485046e-01</leafValues></_>
    <_>
      <internalNodes>
        0 -1 96054 3.7696567596867681e-04</internalNodes>
      <leafValues>
        3.4247455000877380e-01 -9.4929486513137817e-01</leafValues></_>
    <_>
      <internalNodes>
        0 -1 246 -3.9448484312742949e-04</internalNodes>
      <leafValues>
        1. -2.6789385080337524e-01</leafValues></_>
    <_>
      <internalNodes>
        0 -1 6379 1.9388970686122775e-03</internalNodes>
      <leafValues>
        -9.6479073166847229e-02 1.</leafValues></_>
    <_>
      <internalNodes>
        0 -1 138657 -2.9078631196171045e-03</internalNodes>
      <leafValues>
        -1. 1.8156468868255615e-01</leafValues></_>
    <_>
      <internalNodes>
        0 -1 144113 3.1550813582725823e-04</internalNodes>
      <leafValues>
        -1.2272639572620392e-01 1.</leafValues></_>
    <_>
      <internalNodes>
        0 -1 162071 2.3278504158952273e-05</internalNodes>
      <leafValues>
        7.5190879404544830e-02 -9.4227004051208496e-01</leafValues></_>
    <_>
      <internalNodes>
        0 -1 117020 7.7997494372539222e-05</internalNodes>
      <leafValues>
        -6.0851439833641052e-02 1.</leafValues></_>
    <_>
      <internalNodes>
        0 -1 133828 -2.1121493773534894e-04</internalNodes>
      <leafValues>
        -1. 5.5116139352321625e-02</leafValues></_>
    <_>
      <internalNodes>
        0 -1 75498 1.7634613323025405e-04</internalNodes>
      <leafValues>
        -2.7418112382292747e-02 1.</leafValues></_>
    <_>
      <internalNodes>
        0 -1 1075 1.1170211655553430e-04</internalNodes>
      <leafValues>
        1.9004965201020241e-02 -1.</leafValues></_>
    <_>
      <internalNodes>
        0 -1 8051 -7.7381191658787429e-05</internalNodes>
      <leafValues>
        1. -1.2332563288509846e-02</leafValues></_>
    <_>
      <internalNodes>
        0 -1 8 3.0220760891097598e-05</internalNodes>
      <leafValues>
        -6.2528567923436640e-07 -1.</leafValues></_>
    <_>
      <internalNodes>
        0 -1 1130 -4.7905312385410070e-04</internalNodes>
      <leafValues>
        1. -3.9454284124076366e-03</leafValues></_>
    <_>
      <internalNodes>
        0 -1 8 3.0220760891097598e-05</internalNodes>
      <leafValues>
        3.9454079233109951e-03 -1.</leafValues></_>
    <_>
      <internalNodes>
        0 -1 8 1.2958973820786923e-04</internalNodes>
      <leafValues>
        -3.9454079233109951e-03 1.</leafValues></_>
    <_>
      <internalNodes>
        0 -1 121 -1.1145781027153134e-03</internalNodes>
      <leafValues>
        -1. 3.9454079233109951e-03</leafValues></_>
    <_>
      <internalNodes>
        0 -1 41 -1.6789365326985717e-03</internalNodes>
      <leafValues>
        1. 2.0471915718189848e-08</leafValues></_>
    <_>
      <internalNodes>
        0 -1 8 6.6944703576155007e-05</internalNodes>
      <leafValues>
        -7.0207029929310089e-16 -1.</leafValues></_>
    <_>
      <internalNodes>
        0 -1 8 2.0639501599362120e-05</internalNodes>
      <leafValues>
        5.9059239898408083e-16 1.</leafValues></_>
    <_>
      <internalNodes>
        0 -1 8 3.0220760891097598e-05</internalNodes>
      <leafValues>
        -5.2722808766147316e-16 -1.</leafValues></_>
    <_>
      <internalNodes>
        0 -1 8 2.0639501599362120e-05</internalNodes>
      <leafValues>
        -1.0422218961306012e-16 1.</leafValues></_>
    <_>
      <internalNodes>
        0 -1 8 3.0220760891097598e-05</internalNodes>
      <leafValues>
        -1.8720418104077141e-16 -1.</leafValues></_>
    <_>
      <internalNodes>
        0 -1 8 2.0639501599362120e-05</internalNodes>
      <leafValues>
        3.4354721957414482e-16 1.</leafValues></_>
    <_>
      <internalNodes>
        0 -1 8 3.0220760891097598e-05</internalNodes>
      <leafValues>
        -2.5597306549267394e-16 -1.</leafValues></_>
    <_>
      <internalNodes>
        0 -1 8 2.0639501599362120e-05</internalNodes>
      <leafValues>
        -3.0880647426242001e-17 1.</leafValues></_>
    <_>
      <internalNodes>
        0 -1 8 3.0220760891097598e-05</internalNodes>
      <leafValues>
        7.3353476748696037e-16 -1.</leafValues></_>
    <_>
      <internalNodes>
        0 -1 8 2.0639501599362120e-05</internalNodes>
      <leafValues>
        -3.7056778234979381e-16 1.</leafValues></_>
    <_>
      <internalNodes>
        0 -1 8 3.0220760891097598e-05</internalNodes>
      <leafValues>
        -2.0248616418667628e-16 -1.</leafValues></_>
    <_>
      <internalNodes>
        0 -1 8 2.0639501599362120e-05</internalNodes>
      <leafValues>
        3.8600810109983114e-17 1.</leafValues></_>
    <_>
      <internalNodes>
        0 -1 8 3.0220760891097598e-05</internalNodes>
      <leafValues>
        -7.2589380238378753e-17 -1.</leafValues></_>
    <_>
      <internalNodes>
        0 -1 8 2.0639501599362120e-05</internalNodes>
      <leafValues>
        2.7020567738732670e-17 1.</leafValues></_>
    <_>
      <internalNodes>
        0 -1 8 3.0220760891097598e-05</internalNodes>
      <leafValues>
        -6.4948388665426316e-17 -1.</leafValues></_>
    <_>
      <internalNodes>
        0 -1 8 2.0639501599362120e-05</internalNodes>
      <leafValues>
        3.0880647426242001e-17 1.</leafValues></_>
    <_>
      <internalNodes>
        0 -1 8 3.0220760891097598e-05</internalNodes>
      <leafValues>
        8.5579057971464016e-16 -1.</leafValues></_>
    <_>
      <internalNodes>
        0 -1 8 2.0639501599362120e-05</internalNodes>
      <leafValues>
        -3.8214801975796058e-16 1.</leafValues></_>
    <_>
      <internalNodes>
        0 -1 8 3.0220760891097598e-05</internalNodes>
      <leafValues>
        -3.2474194994457648e-16 -1.</leafValues></_>
    <_>
      <internalNodes>
        0 -1 8 2.0639501599362120e-05</internalNodes>
      <leafValues>
        -8.4921782903707340e-17 1.</leafValues></_>
    <_>
      <internalNodes>
        0 -1 8 3.0220760891097598e-05</internalNodes>
      <leafValues>
        -9.5512341722346264e-17 -1.</leafValues></_>
    <_>
      <internalNodes>
        0 -1 8 2.0639501599362120e-05</internalNodes>
      <leafValues>
        1.9300405054991557e-17 1.</leafValues></_>
    <_>
      <internalNodes>
        0 -1 8 3.0220760891097598e-05</internalNodes>
      <leafValues>
        -7.2589380238378753e-17 -1.</leafValues></_>
    <_>
      <internalNodes>
        0 -1 8 2.0639501599362120e-05</internalNodes>
      <leafValues>
        2.7020567738732670e-17 1.</leafValues></_>
    <_>
      <internalNodes>
        0 -1 8 3.0220760891097598e-05</internalNodes>
      <leafValues>
        -6.4948388665426316e-17 -1.</leafValues></_>
    <_>
      <internalNodes>
        0 -1 8 2.0639501599362120e-05</internalNodes>
      <leafValues>
        3.0880647426242001e-17 1.</leafValues></_>
    <_>
      <internalNodes>
        0 -1 8 3.0220760891097598e-05</internalNodes>
      <leafValues>
        8.5579057971464016e-16 -1.</leafValues></_>
    <_>
      <internalNodes>
        0 -1 8 2.0639501599362120e-05</internalNodes>
      <leafValues>
        -3.8214801975796058e-16 1.</leafValues></_>
    <_>
      <internalNodes>
        0 -1 8 3.0220760891097598e-05</internalNodes>
      <leafValues>
        -3.2474194994457648e-16 -1.</leafValues></_>
    <_>
      <internalNodes>
        0 -1 8 2.0639501599362120e-05</internalNodes>
      <leafValues>
        -8.4921782903707340e-17 1.</leafValues></_>
    <_>
      <internalNodes>
        0 -1 8 3.0220760891097598e-05</internalNodes>
      <leafValues>
        -9.5512341722346264e-17 -1.</leafValues></_>
    <_>
      <internalNodes>
        0 -1 8 2.0639501599362120e-05</internalNodes>
      <leafValues>
        1.9300405054991557e-17 1.</leafValues></_>
    <_>
      <internalNodes>
        0 -1 8 3.0220760891097598e-05</internalNodes>
      <leafValues>
        -7.2589380238378753e-17 -1.</leafValues></_>
    <_>
      <internalNodes>
        0 -1 8 2.0639501599362120e-05</internalNodes>
      <leafValues>
        2.7020567738732670e-17 1.</leafValues></_>
    <_>
      <internalNodes>
        0 -1 8 3.0220760891097598e-05</internalNodes>
      <leafValues>
        -6.4948388665426316e-17 -1.</leafValues></_>
    <_>
      <internalNodes>
        0 -1 8 2.0639501599362120e-05</internalNodes>
      <leafValues>
        3.0880647426242001e-17 1.</leafValues></_>
    <_>
      <internalNodes>
        0 -1 8 3.0220760891097598e-05</internalNodes>
      <leafValues>
        8.5579057971464016e-16 -1.</leafValues></_>
    <_>
      <internalNodes>
        0 -1 8 2.0639501599362120e-05</internalNodes>
      <leafValues>
        -3.8214801975796058e-16 1.</leafValues></_>
    <_>
      <internalNodes>
        0 -1 8 3.0220760891097598e-05</internalNodes>
      <leafValues>
        -3.2474194994457648e-16 -1.</leafValues></_>
    <_>
      <internalNodes>
        0 -1 8 2.0639501599362120e-05</internalNodes>
      <leafValues>
        -8.4921782903707340e-17 1.</leafValues></_>
    <_>
      <internalNodes>
        0 -1 8 3.0220760891097598e-05</internalNodes>
      <leafValues>
        -9.5512341722346264e-17 -1.</leafValues></_>
    <_>
      <internalNodes>
        0 -1 8 2.0639501599362120e-05</internalNodes>
      <leafValues>
        1.9300405054991557e-17 1.</leafValues></_>
    <_>
      <internalNodes>
        0 -1 8 3.0220760891097598e-05</internalNodes>
      <leafValues>
        -7.2589380238378753e-17 -1.</leafValues></_>
    <_>
      <internalNodes>
        0 -1 8 2.0639501599362120e-05</internalNodes>
      <leafValues>
        2.7020567738732670e-17 1.</leafValues></_>
    <_>
      <internalNodes>
        0 -1 8 3.0220760891097598e-05</internalNodes>
      <leafValues>
        -6.4948388665426316e-17 -1.</leafValues></_>
    <_>
      <internalNodes>
        0 -1 8 2.0639501599362120e-05</internalNodes>
      <leafValues>
        3.0880647426242001e-17 1.</leafValues></_>
    <_>
      <internalNodes>
        0 -1 8 3.0220760891097598e-05</internalNodes>
      <leafValues>
        8.5579057971464016e-16 -1.</leafValues></_>
    <_>
      <internalNodes>
        0 -1 8 2.0639501599362120e-05</internalNodes>
      <leafValues>
        -3.8214801975796058e-16 1.</leafValues></_>
    <_>
      <internalNodes>
        0 -1 8 3.0220760891097598e-05</internalNodes>
      <leafValues>
        -5.1958710932341052e-16 -1.</leafValues></_>
    <_>
      <internalNodes>
        0 -1 8 2.0639501599362120e-05</internalNodes>
      <leafValues>
        1.4282300303176569e-16 1.</leafValues></_>
    <_>
      <internalNodes>
        0 -1 8 3.0220760891097598e-05</internalNodes>
      <leafValues>
        -3.8204934703705036e-17 -1.</leafValues></_>
    <_>
      <internalNodes>
        0 -1 8 2.0639501599362120e-05</internalNodes>
      <leafValues>
        -2.3160486396862113e-17 1.</leafValues></_>
    <_>
      <internalNodes>
        0 -1 8 3.0220760891097598e-05</internalNodes>
      <leafValues>
        -3.8204934703705036e-17 -1.</leafValues></_>
    <_>
      <internalNodes>
        0 -1 8 2.0639501599362120e-05</internalNodes>
      <leafValues>
        -2.3160486396862113e-17 1.</leafValues></_>
    <_>
      <internalNodes>
        0 -1 8 3.0220760891097598e-05</internalNodes>
      <leafValues>
        -3.8204934703705036e-17 -1.</leafValues></_>
    <_>
      <internalNodes>
        0 -1 8 2.0639501599362120e-05</internalNodes>
      <leafValues>
        -2.3160486396862113e-17 1.</leafValues></_>
    <_>
      <internalNodes>
        0 -1 8 3.0220760891097598e-05</internalNodes>
      <leafValues>
        -3.8204934703705036e-17 -1.</leafValues></_>
    <_>
      <internalNodes>
        0 -1 8 2.0639501599362120e-05</internalNodes>
      <leafValues>
        -2.3160486396862113e-17 1.</leafValues></_>
    <_>
      <internalNodes>
        0 -1 8 3.0220760891097598e-05</internalNodes>
      <leafValues>
        -3.8204934703705036e-17 -1.</leafValues></_>
    <_>
      <internalNodes>
        0 -1 8 2.0639501599362120e-05</internalNodes>
      <leafValues>
        -2.3160486396862113e-17 1.</leafValues></_>
    <_>
      <internalNodes>
        0 -1 8 3.0220760891097598e-05</internalNodes>
      <leafValues>
        -3.8204934703705036e-17 -1.</leafValues></_>
    <_>
      <internalNodes>
        0 -1 8 2.0639501599362120e-05</internalNodes>
      <leafValues>
        -2.3160486396862113e-17 1.</leafValues></_>
    <_>
      <internalNodes>
        0 -1 8 3.0220760891097598e-05</internalNodes>
      <leafValues>
        -3.8204934703705036e-17 -1.</leafValues></_>
    <_>
      <internalNodes>
        0 -1 8 2.0639501599362120e-05</internalNodes>
      <leafValues>
        -2.3160486396862113e-17 1.</leafValues></_>
    <_>
      <internalNodes>
        0 -1 8 3.0220760891097598e-05</internalNodes>
      <leafValues>
        -1.3371727973477375e-16 -1.</leafValues></_>
    <_>
      <internalNodes>
        0 -1 8 2.0639501599362120e-05</internalNodes>
      <leafValues>
        8.8781864245577897e-17 1.</leafValues></_>
    <_>
      <internalNodes>
        0 -1 8 3.0220760891097598e-05</internalNodes>
      <leafValues>
        -6.4948388665426316e-17 -1.</leafValues></_>
    <_>
      <internalNodes>
        0 -1 8 2.0639501599362120e-05</internalNodes>
      <leafValues>
        8.1061701561836784e-17 1.</leafValues></_>
    <_>
      <internalNodes>
        0 -1 8 3.0220760891097598e-05</internalNodes>
      <leafValues>
        -7.2589380238378753e-17 -1.</leafValues></_>
    <_>
      <internalNodes>
        0 -1 8 2.0639501599362120e-05</internalNodes>
      <leafValues>
        5.7901213510613446e-17 1.</leafValues></_>
    <_>
      <internalNodes>
        0 -1 8 3.0220760891097598e-05</internalNodes>
      <leafValues>
        -9.5512341722346264e-17 -1.</leafValues></_>
    <_>
      <internalNodes>
        0 -1 8 2.0639501599362120e-05</internalNodes>
      <leafValues>
        1.9300405054991557e-17 1.</leafValues></_>
    <_>
      <internalNodes>
        0 -1 8 3.0220760891097598e-05</internalNodes>
      <leafValues>
        -7.2589380238378753e-17 -1.</leafValues></_>
    <_>
      <internalNodes>
        0 -1 8 2.0639501599362120e-05</internalNodes>
      <leafValues>
        2.7020567738732670e-17 1.</leafValues></_>
    <_>
      <internalNodes>
        0 -1 8 3.0220760891097598e-05</internalNodes>
      <leafValues>
        -6.4948388665426316e-17 -1.</leafValues></_>
    <_>
      <internalNodes>
        0 -1 8 2.0639501599362120e-05</internalNodes>
      <leafValues>
        3.0880647426242001e-17 1.</leafValues></_>
    <_>
      <internalNodes>
        0 -1 8 3.0220760891097598e-05</internalNodes>
      <leafValues>
        8.5579057971464016e-16 -1.</leafValues></_>
    <_>
      <internalNodes>
        0 -1 8 2.0639501599362120e-05</internalNodes>
      <leafValues>
        -3.8214801975796058e-16 1.</leafValues></_>
    <_>
      <internalNodes>
        0 -1 8 3.0220760891097598e-05</internalNodes>
      <leafValues>
        -3.2474194994457648e-16 -1.</leafValues></_></weakClassifiers></stage18>
</opencv_storage>
