<?xml version="1.0"?>
<opencv_storage>
<stage11>
  <maxWeakCount>13</maxWeakCount>
  <stageThreshold>-1.5375698804855347e+00</stageThreshold>
  <weakClassifiers>
    <_>
      <internalNodes>
        0 -1 114884 -5.8647361584007740e-04</internalNodes>
      <leafValues>
        8.5714286565780640e-01 -5.4838711023330688e-01</leafValues></_>
    <_>
      <internalNodes>
        0 -1 96156 5.8177152823191136e-05</internalNodes>
      <leafValues>
        -5.9994059801101685e-01 7.7971571683883667e-01</leafValues></_>
    <_>
      <internalNodes>
        0 -1 93137 -1.7454539192840457e-04</internalNodes>
      <leafValues>
        8.0753892660140991e-01 -4.3452599644660950e-01</leafValues></_>
    <_>
      <internalNodes>
        0 -1 22753 7.8937395301181823e-05</internalNodes>
      <leafValues>
        -2.4977771937847137e-01 8.7399584054946899e-01</leafValues></_>
    <_>
      <internalNodes>
        0 -1 13421 -2.7213585563004017e-03</internalNodes>
      <leafValues>
        -1. 3.3289602398872375e-01</leafValues></_>
    <_>
      <internalNodes>
        0 -1 26790 -1.3346262276172638e-03</internalNodes>
      <leafValues>
        8.4747761487960815e-01 -3.8634145259857178e-01</leafValues></_>
    <_>
      <internalNodes>
        0 -1 15434 -5.2473106188699603e-04</internalNodes>
      <leafValues>
        -6.7013180255889893e-01 4.5019459724426270e-01</leafValues></_>
    <_>
      <internalNodes>
        0 -1 153724 -4.8427209549117833e-05</internalNodes>
      <leafValues>
        8.5848480463027954e-01 -2.1843834221363068e-01</leafValues></_>
    <_>
      <internalNodes>
        0 -1 59435 2.3798766778782010e-04</internalNodes>
      <leafValues>
        2.1765883266925812e-01 -9.2972153425216675e-01</leafValues></_>
    <_>
      <internalNodes>
        0 -1 8530 1.2014483218081295e-04</internalNodes>
      <leafValues>
        -2.0498043298721313e-01 8.7297052145004272e-01</leafValues></_>
    <_>
      <internalNodes>
        0 -1 32845 -3.1946629285812378e-02</internalNodes>
      <leafValues>
        -1. 1.0636941343545914e-01</leafValues></_>
    <_>
      <internalNodes>
        0 -1 18045 7.2461036324966699e-05</internalNodes>
      <leafValues>
        -1.3074815273284912e-01 9.3120157718658447e-01</leafValues></_>
    <_>
      <internalNodes>
        0 -1 159379 9.3811587430536747e-04</internalNodes>
      <leafValues>
        1.2845107913017273e-01 -1.</leafValues></_></weakClassifiers></stage11>
</opencv_storage>
