<?xml version="1.0"?>
<opencv_storage>
<stage17>
  <maxWeakCount>100</maxWeakCount>
  <stageThreshold>-1.6836479902267456e+00</stageThreshold>
  <weakClassifiers>
    <_>
      <internalNodes>
        0 -1 90341 -5.6374160340055823e-04</internalNodes>
      <leafValues>
        6.3157892227172852e-01 -6.5384614467620850e-01</leafValues></_>
    <_>
      <internalNodes>
        0 -1 40221 1.2452012742869556e-04</internalNodes>
      <leafValues>
        -5.2601283788681030e-01 8.0123722553253174e-01</leafValues></_>
    <_>
      <internalNodes>
        0 -1 17853 -1.8949147488456219e-04</internalNodes>
      <leafValues>
        8.3277922868728638e-01 -3.6474439501762390e-01</leafValues></_>
    <_>
      <internalNodes>
        0 -1 68162 6.4875534735620022e-04</internalNodes>
      <leafValues>
        3.6901202797889709e-01 -9.2506998777389526e-01</leafValues></_>
    <_>
      <internalNodes>
        0 -1 86865 3.9290727727347985e-05</internalNodes>
      <leafValues>
        -4.7759950160980225e-01 7.5077593326568604e-01</leafValues></_>
    <_>
      <internalNodes>
        0 -1 142851 -3.6691878922283649e-03</internalNodes>
      <leafValues>
        -9.6091663837432861e-01 2.8954198956489563e-01</leafValues></_>
    <_>
      <internalNodes>
        0 -1 156532 -2.5917948732967488e-05</internalNodes>
      <leafValues>
        7.6739215850830078e-01 -3.4103375673294067e-01</leafValues></_>
    <_>
      <internalNodes>
        0 -1 158956 -4.9989484250545502e-03</internalNodes>
      <leafValues>
        -9.2630469799041748e-01 2.0436330139636993e-01</leafValues></_>
    <_>
      <internalNodes>
        0 -1 158211 5.1243408961454406e-05</internalNodes>
      <leafValues>
        -2.2543106973171234e-01 1.</leafValues></_>
    <_>
      <internalNodes>
        0 -1 58575 9.3265052419155836e-04</internalNodes>
      <leafValues>
        1.4447875320911407e-01 -8.8259023427963257e-01</leafValues></_>
    <_>
      <internalNodes>
        0 -1 152171 4.1144082206301391e-04</internalNodes>
      <leafValues>
        -1.6732454299926758e-01 8.5446327924728394e-01</leafValues></_>
    <_>
      <internalNodes>
        0 -1 22481 3.7317875772714615e-02</internalNodes>
      <leafValues>
        1.1170842498540878e-01 -1.</leafValues></_>
    <_>
      <internalNodes>
        0 -1 107000 -1.2958973820786923e-04</internalNodes>
      <leafValues>
        1. -9.4634100794792175e-02</leafValues></_>
    <_>
      <internalNodes>
        0 -1 53659 -2.3769866675138474e-03</internalNodes>
      <leafValues>
        -1. 8.0944754183292389e-02</leafValues></_>
    <_>
      <internalNodes>
        0 -1 46522 -1.7851578013505787e-04</internalNodes>
      <leafValues>
        1. -4.6807672828435898e-02</leafValues></_>
    <_>
      <internalNodes>
        0 -1 36284 -3.5682451562024653e-04</internalNodes>
      <leafValues>
        -1. 3.3181633800268173e-02</leafValues></_>
    <_>
      <internalNodes>
        0 -1 157374 -5.2467617933871225e-05</internalNodes>
      <leafValues>
        1. -2.0476721227169037e-02</leafValues></_>
    <_>
      <internalNodes>
        0 -1 8196 -2.8853270123363473e-05</internalNodes>
      <leafValues>
        -1. 9.5282755792140961e-03</leafValues></_>
    <_>
      <internalNodes>
        0 -1 103772 7.7381191658787429e-05</internalNodes>
      <leafValues>
        -4.6657510101795197e-03 1.</leafValues></_>
    <_>
      <internalNodes>
        0 -1 7204 -2.3585907183587551e-03</internalNodes>
      <leafValues>
        -1. 3.1130146235227585e-03</leafValues></_>
    <_>
      <internalNodes>
        0 -1 97098 -2.7553682230063714e-05</internalNodes>
      <leafValues>
        1. -4.0820506401360035e-03</leafValues></_>
    <_>
      <internalNodes>
        0 -1 122 2.2771496151108295e-04</internalNodes>
      <leafValues>
        -2.2673482646951015e-08 -1.</leafValues></_>
    <_>
      <internalNodes>
        0 -1 34169 3.8690595829393715e-05</internalNodes>
      <leafValues>
        -2.8614879120141268e-03 1.</leafValues></_>
    <_>
      <internalNodes>
        0 -1 81 1.4295743312686682e-05</internalNodes>
      <leafValues>
        -7.8100992340068842e-09 -1.</leafValues></_>
    <_>
      <internalNodes>
        0 -1 55 8.9875358389690518e-04</internalNodes>
      <leafValues>
        -2.2337005939334631e-03 1.</leafValues></_>
    <_>
      <internalNodes>
        0 -1 0 8.5774459876120090e-05</internalNodes>
      <leafValues>
        2.2336971014738083e-03 -1.</leafValues></_>
    <_>
      <internalNodes>
        0 -1 0 1.7223921895492822e-04</internalNodes>
      <leafValues>
        -5.6137121282517910e-03 1.</leafValues></_>
    <_>
      <internalNodes>
        0 -1 2 7.4441422475501895e-04</internalNodes>
      <leafValues>
        5.6136567145586014e-03 -1.</leafValues></_>
    <_>
      <internalNodes>
        0 -1 2 5.6350318482145667e-04</internalNodes>
      <leafValues>
        -4.4545601122081280e-03 1.</leafValues></_>
    <_>
      <internalNodes>
        0 -1 2 7.4441422475501895e-04</internalNodes>
      <leafValues>
        4.4545894488692284e-03 -1.</leafValues></_>
    <_>
      <internalNodes>
        0 -1 2 5.6350318482145667e-04</internalNodes>
      <leafValues>
        -4.4545894488692284e-03 1.</leafValues></_>
    <_>
      <internalNodes>
        0 -1 2 7.4441422475501895e-04</internalNodes>
      <leafValues>
        4.4545894488692284e-03 -1.</leafValues></_>
    <_>
      <internalNodes>
        0 -1 28 1.1001728707924485e-03</internalNodes>
      <leafValues>
        -4.4545894488692284e-03 1.</leafValues></_>
    <_>
      <internalNodes>
        0 -1 1 1.4426635061681736e-05</internalNodes>
      <leafValues>
        4.4545894488692284e-03 -1.</leafValues></_>
    <_>
      <internalNodes>
        0 -1 0 3.3995645935647190e-04</internalNodes>
      <leafValues>
        -5.6072194129228592e-03 1.</leafValues></_>
    <_>
      <internalNodes>
        0 -1 0 3.4591951407492161e-04</internalNodes>
      <leafValues>
        5.6071905419230461e-03 -1.</leafValues></_>
    <_>
      <internalNodes>
        0 -1 0 3.3995645935647190e-04</internalNodes>
      <leafValues>
        -5.6071905419230461e-03 1.</leafValues></_>
    <_>
      <internalNodes>
        0 -1 0 3.4591951407492161e-04</internalNodes>
      <leafValues>
        5.6071905419230461e-03 -1.</leafValues></_>
    <_>
      <internalNodes>
        0 -1 0 3.3995645935647190e-04</internalNodes>
      <leafValues>
        -5.6071905419230461e-03 1.</leafValues></_>
    <_>
      <internalNodes>
        0 -1 0 3.4591951407492161e-04</internalNodes>
      <leafValues>
        5.6071905419230461e-03 -1.</leafValues></_>
    <_>
      <internalNodes>
        0 -1 0 3.3995645935647190e-04</internalNodes>
      <leafValues>
        -5.6071905419230461e-03 1.</leafValues></_>
    <_>
      <internalNodes>
        0 -1 0 3.4591951407492161e-04</internalNodes>
      <leafValues>
        5.6071905419230461e-03 -1.</leafValues></_>
    <_>
      <internalNodes>
        0 -1 0 3.3995645935647190e-04</internalNodes>
      <leafValues>
        -5.6071905419230461e-03 1.</leafValues></_>
    <_>
      <internalNodes>
        0 -1 0 3.4591951407492161e-04</internalNodes>
      <leafValues>
        5.6071905419230461e-03 -1.</leafValues></_>
    <_>
      <internalNodes>
        0 -1 0 3.3995645935647190e-04</internalNodes>
      <leafValues>
        -5.6071905419230461e-03 1.</leafValues></_>
    <_>
      <internalNodes>
        0 -1 0 3.4591951407492161e-04</internalNodes>
      <leafValues>
        5.6071905419230461e-03 -1.</leafValues></_>
    <_>
      <internalNodes>
        0 -1 0 3.3995645935647190e-04</internalNodes>
      <leafValues>
        -5.6071905419230461e-03 1.</leafValues></_>
    <_>
      <internalNodes>
        0 -1 0 3.4591951407492161e-04</internalNodes>
      <leafValues>
        5.6071905419230461e-03 -1.</leafValues></_>
    <_>
      <internalNodes>
        0 -1 0 3.3995645935647190e-04</internalNodes>
      <leafValues>
        -5.6071905419230461e-03 1.</leafValues></_>
    <_>
      <internalNodes>
        0 -1 0 3.4591951407492161e-04</internalNodes>
      <leafValues>
        5.6071905419230461e-03 -1.</leafValues></_>
    <_>
      <internalNodes>
        0 -1 0 3.3995645935647190e-04</internalNodes>
      <leafValues>
        -5.6071905419230461e-03 1.</leafValues></_>
    <_>
      <internalNodes>
        0 -1 0 3.4591951407492161e-04</internalNodes>
      <leafValues>
        5.6071905419230461e-03 -1.</leafValues></_>
    <_>
      <internalNodes>
        0 -1 0 3.3995645935647190e-04</internalNodes>
      <leafValues>
        -5.6071905419230461e-03 1.</leafValues></_>
    <_>
      <internalNodes>
        0 -1 0 3.4591951407492161e-04</internalNodes>
      <leafValues>
        5.6071905419230461e-03 -1.</leafValues></_>
    <_>
      <internalNodes>
        0 -1 0 3.3995645935647190e-04</internalNodes>
      <leafValues>
        -5.6071905419230461e-03 1.</leafValues></_>
    <_>
      <internalNodes>
        0 -1 0 3.4591951407492161e-04</internalNodes>
      <leafValues>
        5.6071905419230461e-03 -1.</leafValues></_>
    <_>
      <internalNodes>
        0 -1 0 3.3995645935647190e-04</internalNodes>
      <leafValues>
        -5.6071905419230461e-03 1.</leafValues></_>
    <_>
      <internalNodes>
        0 -1 0 3.4591951407492161e-04</internalNodes>
      <leafValues>
        5.6071905419230461e-03 -1.</leafValues></_>
    <_>
      <internalNodes>
        0 -1 0 3.3995645935647190e-04</internalNodes>
      <leafValues>
        -5.6071905419230461e-03 1.</leafValues></_>
    <_>
      <internalNodes>
        0 -1 0 3.4591951407492161e-04</internalNodes>
      <leafValues>
        5.6071905419230461e-03 -1.</leafValues></_>
    <_>
      <internalNodes>
        0 -1 0 3.3995645935647190e-04</internalNodes>
      <leafValues>
        -5.6071905419230461e-03 1.</leafValues></_>
    <_>
      <internalNodes>
        0 -1 0 3.4591951407492161e-04</internalNodes>
      <leafValues>
        5.6071905419230461e-03 -1.</leafValues></_>
    <_>
      <internalNodes>
        0 -1 0 3.3995645935647190e-04</internalNodes>
      <leafValues>
        -5.6071905419230461e-03 1.</leafValues></_>
    <_>
      <internalNodes>
        0 -1 0 3.4591951407492161e-04</internalNodes>
      <leafValues>
        5.6071905419230461e-03 -1.</leafValues></_>
    <_>
      <internalNodes>
        0 -1 0 3.3995645935647190e-04</internalNodes>
      <leafValues>
        -5.6071905419230461e-03 1.</leafValues></_>
    <_>
      <internalNodes>
        0 -1 0 3.4591951407492161e-04</internalNodes>
      <leafValues>
        5.6071905419230461e-03 -1.</leafValues></_>
    <_>
      <internalNodes>
        0 -1 0 3.3995645935647190e-04</internalNodes>
      <leafValues>
        -5.6071905419230461e-03 1.</leafValues></_>
    <_>
      <internalNodes>
        0 -1 0 3.4591951407492161e-04</internalNodes>
      <leafValues>
        5.6071905419230461e-03 -1.</leafValues></_>
    <_>
      <internalNodes>
        0 -1 0 3.3995645935647190e-04</internalNodes>
      <leafValues>
        -5.6071905419230461e-03 1.</leafValues></_>
    <_>
      <internalNodes>
        0 -1 0 3.4591951407492161e-04</internalNodes>
      <leafValues>
        5.6071905419230461e-03 -1.</leafValues></_>
    <_>
      <internalNodes>
        0 -1 0 3.3995645935647190e-04</internalNodes>
      <leafValues>
        -5.6071905419230461e-03 1.</leafValues></_>
    <_>
      <internalNodes>
        0 -1 0 3.4591951407492161e-04</internalNodes>
      <leafValues>
        5.6071905419230461e-03 -1.</leafValues></_>
    <_>
      <internalNodes>
        0 -1 0 3.3995645935647190e-04</internalNodes>
      <leafValues>
        -5.6071905419230461e-03 1.</leafValues></_>
    <_>
      <internalNodes>
        0 -1 0 3.4591951407492161e-04</internalNodes>
      <leafValues>
        5.6071905419230461e-03 -1.</leafValues></_>
    <_>
      <internalNodes>
        0 -1 0 3.3995645935647190e-04</internalNodes>
      <leafValues>
        -5.6071905419230461e-03 1.</leafValues></_>
    <_>
      <internalNodes>
        0 -1 0 3.4591951407492161e-04</internalNodes>
      <leafValues>
        5.6071905419230461e-03 -1.</leafValues></_>
    <_>
      <internalNodes>
        0 -1 0 3.3995645935647190e-04</internalNodes>
      <leafValues>
        -5.6071905419230461e-03 1.</leafValues></_>
    <_>
      <internalNodes>
        0 -1 0 3.4591951407492161e-04</internalNodes>
      <leafValues>
        5.6071905419230461e-03 -1.</leafValues></_>
    <_>
      <internalNodes>
        0 -1 0 3.3995645935647190e-04</internalNodes>
      <leafValues>
        -5.6071905419230461e-03 1.</leafValues></_>
    <_>
      <internalNodes>
        0 -1 0 3.4591951407492161e-04</internalNodes>
      <leafValues>
        5.6071905419230461e-03 -1.</leafValues></_>
    <_>
      <internalNodes>
        0 -1 0 3.3995645935647190e-04</internalNodes>
      <leafValues>
        -5.6071905419230461e-03 1.</leafValues></_>
    <_>
      <internalNodes>
        0 -1 0 3.4591951407492161e-04</internalNodes>
      <leafValues>
        5.6071905419230461e-03 -1.</leafValues></_>
    <_>
      <internalNodes>
        0 -1 0 3.3995645935647190e-04</internalNodes>
      <leafValues>
        -5.6071905419230461e-03 1.</leafValues></_>
    <_>
      <internalNodes>
        0 -1 0 3.4591951407492161e-04</internalNodes>
      <leafValues>
        5.6071905419230461e-03 -1.</leafValues></_>
    <_>
      <internalNodes>
        0 -1 0 3.3995645935647190e-04</internalNodes>
      <leafValues>
        -5.6071905419230461e-03 1.</leafValues></_>
    <_>
      <internalNodes>
        0 -1 0 3.4591951407492161e-04</internalNodes>
      <leafValues>
        5.6071905419230461e-03 -1.</leafValues></_>
    <_>
      <internalNodes>
        0 -1 0 3.3995645935647190e-04</internalNodes>
      <leafValues>
        -5.6071905419230461e-03 1.</leafValues></_>
    <_>
      <internalNodes>
        0 -1 0 3.4591951407492161e-04</internalNodes>
      <leafValues>
        5.6071905419230461e-03 -1.</leafValues></_>
    <_>
      <internalNodes>
        0 -1 0 3.3995645935647190e-04</internalNodes>
      <leafValues>
        -5.6071905419230461e-03 1.</leafValues></_>
    <_>
      <internalNodes>
        0 -1 0 3.4591951407492161e-04</internalNodes>
      <leafValues>
        5.6071905419230461e-03 -1.</leafValues></_>
    <_>
      <internalNodes>
        0 -1 0 3.3995645935647190e-04</internalNodes>
      <leafValues>
        -5.6071905419230461e-03 1.</leafValues></_>
    <_>
      <internalNodes>
        0 -1 0 3.4591951407492161e-04</internalNodes>
      <leafValues>
        5.6071905419230461e-03 -1.</leafValues></_>
    <_>
      <internalNodes>
        0 -1 0 3.3995645935647190e-04</internalNodes>
      <leafValues>
        -5.6071905419230461e-03 1.</leafValues></_>
    <_>
      <internalNodes>
        0 -1 0 3.4591951407492161e-04</internalNodes>
      <leafValues>
        5.6071905419230461e-03 -1.</leafValues></_>
    <_>
      <internalNodes>
        0 -1 0 3.3995645935647190e-04</internalNodes>
      <leafValues>
        -5.6071905419230461e-03 1.</leafValues></_>
    <_>
      <internalNodes>
        0 -1 0 3.4591951407492161e-04</internalNodes>
      <leafValues>
        5.6071905419230461e-03 -1.</leafValues></_>
    <_>
      <internalNodes>
        0 -1 0 3.3995645935647190e-04</internalNodes>
      <leafValues>
        -5.6071905419230461e-03 1.</leafValues></_>
    <_>
      <internalNodes>
        0 -1 0 3.4591951407492161e-04</internalNodes>
      <leafValues>
        5.6071905419230461e-03 -1.</leafValues></_>
    <_>
      <internalNodes>
        0 -1 0 3.3995645935647190e-04</internalNodes>
      <leafValues>
        -5.6071905419230461e-03 1.</leafValues></_>
    <_>
      <internalNodes>
        0 -1 0 3.4591951407492161e-04</internalNodes>
      <leafValues>
        5.6071905419230461e-03 -1.</leafValues></_></weakClassifiers></stage17>
</opencv_storage>
