<?xml version="1.0"?>
<opencv_storage>
<stage1>
  <maxWeakCount>8</maxWeakCount>
  <stageThreshold>-1.3284940719604492e+00</stageThreshold>
  <weakClassifiers>
    <_>
      <internalNodes>
        0 -1 1646 1.3256096839904785e-01</internalNodes>
      <leafValues>
        -7.6915115118026733e-01 5.5675673484802246e-01</leafValues></_>
    <_>
      <internalNodes>
        0 -1 8281 -4.1358500719070435e-02</internalNodes>
      <leafValues>
        6.7731022834777832e-01 -4.3854722380638123e-01</leafValues></_>
    <_>
      <internalNodes>
        0 -1 152833 -3.0067335814237595e-02</internalNodes>
      <leafValues>
        7.0262658596038818e-01 -2.5094768404960632e-01</leafValues></_>
    <_>
      <internalNodes>
        0 -1 138731 3.9047941565513611e-02</internalNodes>
      <leafValues>
        -2.4974209070205688e-01 5.7027179002761841e-01</leafValues></_>
    <_>
      <internalNodes>
        0 -1 82736 -8.2137659192085266e-02</internalNodes>
      <leafValues>
        3.1155452132225037e-01 -4.8241722583770752e-01</leafValues></_>
    <_>
      <internalNodes>
        0 -1 5162 5.0713971257209778e-02</internalNodes>
      <leafValues>
        -2.3247537016868591e-01 7.2790020704269409e-01</leafValues></_>
    <_>
      <internalNodes>
        0 -1 12127 6.0120010748505592e-03</internalNodes>
      <leafValues>
        1.6535371541976929e-01 -8.3602315187454224e-01</leafValues></_>
    <_>
      <internalNodes>
        0 -1 48084 -6.3244113698601723e-03</internalNodes>
      <leafValues>
        -8.6103487014770508e-01 1.3546119630336761e-01</leafValues></_></weakClassifiers></stage1>
</opencv_storage>
