<?xml version="1.0"?>
<opencv_storage>
<stage13>
  <maxWeakCount>18</maxWeakCount>
  <stageThreshold>-1.3281826972961426e+00</stageThreshold>
  <weakClassifiers>
    <_>
      <internalNodes>
        0 -1 89803 -9.1985221952199936e-03</internalNodes>
      <leafValues>
        -7.1428574621677399e-02 -7.0343768596649170e-01</leafValues></_>
    <_>
      <internalNodes>
        0 -1 159529 1.1568751186132431e-02</internalNodes>
      <leafValues>
        -2.7896308898925781e-01 3.4545946121215820e-01</leafValues></_>
    <_>
      <internalNodes>
        0 -1 27905 2.0655324682593346e-02</internalNodes>
      <leafValues>
        -2.0253401994705200e-01 3.5693931579589844e-01</leafValues></_>
    <_>
      <internalNodes>
        0 -1 158103 -1.3016111915931106e-03</internalNodes>
      <leafValues>
        5.0555706024169922e-01 -1.1222799867391586e-01</leafValues></_>
    <_>
      <internalNodes>
        0 -1 4410 -4.6505350619554520e-03</internalNodes>
      <leafValues>
        4.3526819348335266e-01 -1.2986409664154053e-01</leafValues></_>
    <_>
      <internalNodes>
        0 -1 121441 9.6808057278394699e-03</internalNodes>
      <leafValues>
        9.2585407197475433e-02 -6.1062860488891602e-01</leafValues></_>
    <_>
      <internalNodes>
        0 -1 134913 -5.6280069053173065e-02</internalNodes>
      <leafValues>
        3.9880424737930298e-01 -1.4399704337120056e-01</leafValues></_>
    <_>
      <internalNodes>
        0 -1 152321 7.4229566380381584e-03</internalNodes>
      <leafValues>
        -1.4114242792129517e-01 3.9001968502998352e-01</leafValues></_>
    <_>
      <internalNodes>
        0 -1 38580 1.0668109357357025e-01</internalNodes>
      <leafValues>
        5.7215020060539246e-02 -8.6665236949920654e-01</leafValues></_>
    <_>
      <internalNodes>
        0 -1 144133 8.8971797376871109e-03</internalNodes>
      <leafValues>
        8.6014546453952789e-02 -5.7435637712478638e-01</leafValues></_>
    <_>
      <internalNodes>
        0 -1 74151 -8.7958142161369324e-02</internalNodes>
      <leafValues>
        -7.6594531536102295e-01 6.3373386859893799e-02</leafValues></_>
    <_>
      <internalNodes>
        0 -1 37244 -4.9991863779723644e-03</internalNodes>
      <leafValues>
        3.6442798376083374e-01 -1.4770941436290741e-01</leafValues></_>
    <_>
      <internalNodes>
        0 -1 36645 6.6103357821702957e-03</internalNodes>
      <leafValues>
        -1.2272835522890091e-01 5.6251990795135498e-01</leafValues></_>
    <_>
      <internalNodes>
        0 -1 158023 -3.2084176782518625e-03</internalNodes>
      <leafValues>
        2.6332047581672668e-01 -1.9123730063438416e-01</leafValues></_>
    <_>
      <internalNodes>
        0 -1 21605 3.9470210322178900e-04</internalNodes>
      <leafValues>
        9.0987995266914368e-02 -5.1925140619277954e-01</leafValues></_>
    <_>
      <internalNodes>
        0 -1 10 7.6819735113531351e-04</internalNodes>
      <leafValues>
        1.2334677577018738e-01 -4.4731345772743225e-01</leafValues></_>
    <_>
      <internalNodes>
        0 -1 5 -9.3708123313263059e-04</internalNodes>
      <leafValues>
        -5.8490574359893799e-01 1.0197483748197556e-01</leafValues></_>
    <_>
      <internalNodes>
        0 -1 28730 3.0945586040616035e-03</internalNodes>
      <leafValues>
        -1.4044128358364105e-01 3.9877623319625854e-01</leafValues></_></weakClassifiers></stage13>
</opencv_storage>
