<?xml version="1.0"?>
<opencv_storage>
<stage8>
  <maxWeakCount>14</maxWeakCount>
  <stageThreshold>-1.5089440345764160e+00</stageThreshold>
  <weakClassifiers>
    <_>
      <internalNodes>
        0 -1 7445 1.1593755334615707e-02</internalNodes>
      <leafValues>
        -7.1825194358825684e-01 8.1395350396633148e-02</leafValues></_>
    <_>
      <internalNodes>
        0 -1 25842 -4.3525561690330505e-02</internalNodes>
      <leafValues>
        5.5818027257919312e-01 -2.6236638426780701e-01</leafValues></_>
    <_>
      <internalNodes>
        0 -1 152825 -2.4402216076850891e-02</internalNodes>
      <leafValues>
        3.8883054256439209e-01 -2.2676758468151093e-01</leafValues></_>
    <_>
      <internalNodes>
        0 -1 153294 6.0429517179727554e-02</internalNodes>
      <leafValues>
        -1.4655256271362305e-01 5.7973229885101318e-01</leafValues></_>
    <_>
      <internalNodes>
        0 -1 20759 -2.2978276014328003e-02</internalNodes>
      <leafValues>
        2.1449089050292969e-01 -3.9509856700897217e-01</leafValues></_>
    <_>
      <internalNodes>
        0 -1 157386 -2.9269333463162184e-03</internalNodes>
      <leafValues>
        -7.0722287893295288e-01 9.3688532710075378e-02</leafValues></_>
    <_>
      <internalNodes>
        0 -1 150640 -2.4425087496638298e-02</internalNodes>
      <leafValues>
        -6.9888097047805786e-01 1.1336951702833176e-01</leafValues></_>
    <_>
      <internalNodes>
        0 -1 148391 9.1740367934107780e-03</internalNodes>
      <leafValues>
        -2.3053170740604401e-01 3.4080952405929565e-01</leafValues></_>
    <_>
      <internalNodes>
        0 -1 111697 1.3830187730491161e-02</internalNodes>
      <leafValues>
        1.2101116776466370e-01 -6.5377867221832275e-01</leafValues></_>
    <_>
      <internalNodes>
        0 -1 4656 -5.1024258136749268e-03</internalNodes>
      <leafValues>
        -6.8761682510375977e-01 8.7036311626434326e-02</leafValues></_>
    <_>
      <internalNodes>
        0 -1 39894 -9.7036976367235184e-03</internalNodes>
      <leafValues>
        5.6064909696578979e-01 -1.2976348400115967e-01</leafValues></_>
    <_>
      <internalNodes>
        0 -1 10078 -1.1574921198189259e-02</internalNodes>
      <leafValues>
        3.8134616613388062e-01 -1.7618197202682495e-01</leafValues></_>
    <_>
      <internalNodes>
        0 -1 9512 5.8621084317564964e-03</internalNodes>
      <leafValues>
        -2.1433682739734650e-01 3.8369104266166687e-01</leafValues></_>
    <_>
      <internalNodes>
        0 -1 120158 -1.3055387171334587e-05</internalNodes>
      <leafValues>
        2.0111252367496490e-01 -3.6959061026573181e-01</leafValues></_></weakClassifiers></stage8>
</opencv_storage>
