<?xml version="1.0"?>
<opencv_storage>
<stage7>
  <maxWeakCount>12</maxWeakCount>
  <stageThreshold>-1.8465414047241211e+00</stageThreshold>
  <weakClassifiers>
    <_>
      <internalNodes>
        0 -1 231 8.2498699426651001e-02</internalNodes>
      <leafValues>
        -7.8799778223037720e-01 6.5868265926837921e-02</leafValues></_>
    <_>
      <internalNodes>
        0 -1 1 6.7807167768478394e-02</internalNodes>
      <leafValues>
        -5.1932203769683838e-01 3.3705011010169983e-01</leafValues></_>
    <_>
      <internalNodes>
        0 -1 121 4.3386869132518768e-02</internalNodes>
      <leafValues>
        -3.7787103652954102e-01 4.0282258391380310e-01</leafValues></_>
    <_>
      <internalNodes>
        0 -1 96 6.2449112534523010e-02</internalNodes>
      <leafValues>
        -3.0370876193046570e-01 5.1306825876235962e-01</leafValues></_>
    <_>
      <internalNodes>
        0 -1 314 1.3246048241853714e-02</internalNodes>
      <leafValues>
        3.0589172244071960e-01 -3.2979887723922729e-01</leafValues></_>
    <_>
      <internalNodes>
        0 -1 80 2.6027318090200424e-02</internalNodes>
      <leafValues>
        -3.0148205161094666e-01 3.0256560444831848e-01</leafValues></_>
    <_>
      <internalNodes>
        0 -1 122 1.1705456301569939e-02</internalNodes>
      <leafValues>
        -7.0286369323730469e-01 1.2582571804523468e-01</leafValues></_>
    <_>
      <internalNodes>
        0 -1 321 9.4855241477489471e-03</internalNodes>
      <leafValues>
        3.1380251049995422e-01 -2.8985804319381714e-01</leafValues></_>
    <_>
      <internalNodes>
        0 -1 203 4.6243615448474884e-02</internalNodes>
      <leafValues>
        -2.1496462821960449e-01 3.4957256913185120e-01</leafValues></_>
    <_>
      <internalNodes>
        0 -1 316 3.2159358263015747e-02</internalNodes>
      <leafValues>
        -3.2524141669273376e-01 2.3185105621814728e-01</leafValues></_>
    <_>
      <internalNodes>
        0 -1 268 1.4855705201625824e-02</internalNodes>
      <leafValues>
        -6.5585619211196899e-01 1.0901750624179840e-01</leafValues></_>
    <_>
      <internalNodes>
        0 -1 124 3.3906966447830200e-02</internalNodes>
      <leafValues>
        1.6971781849861145e-01 -4.2797073721885681e-01</leafValues></_></weakClassifiers></stage7>
</opencv_storage>
