<?xml version="1.0"?>
<opencv_storage>
<stage1>
  <maxWeakCount>5</maxWeakCount>
  <stageThreshold>-1.6783803701400757e+00</stageThreshold>
  <weakClassifiers>
    <_>
      <internalNodes>
        0 -1 96 5.8801025152206421e-02</internalNodes>
      <leafValues>
        -8.3172559738159180e-01 6.7330676317214966e-01</leafValues></_>
    <_>
      <internalNodes>
        0 -1 231 5.4557241499423981e-02</internalNodes>
      <leafValues>
        -6.4962995052337646e-01 7.3736923933029175e-01</leafValues></_>
    <_>
      <internalNodes>
        0 -1 36 4.6071942895650864e-02</internalNodes>
      <leafValues>
        -3.5727152228355408e-01 7.8799277544021606e-01</leafValues></_>
    <_>
      <internalNodes>
        0 -1 247 2.7942180633544922e-02</internalNodes>
      <leafValues>
        4.4185453653335571e-01 -4.7402361035346985e-01</leafValues></_>
    <_>
      <internalNodes>
        0 -1 203 4.7732017934322357e-02</internalNodes>
      <leafValues>
        -2.7474880218505859e-01 6.3427025079727173e-01</leafValues></_></weakClassifiers></stage1>
</opencv_storage>
