<?xml version="1.0"?>
<opencv_storage>
<stage14>
  <maxWeakCount>6</maxWeakCount>
  <stageThreshold>-1.3242079019546509e+00</stageThreshold>
  <weakClassifiers>
    <_>
      <internalNodes>
        0 -1 8365 -472920513 655605896 -905890341 -1647214094 -477978113
        -724433777 1908143025 -570695477</internalNodes>
      <leafValues>
        -8.1421649456024170e-01 -1.4511872828006744e-01</leafValues></_>
    <_>
      <internalNodes>
        0 -1 56 -111929366 -674131832 1949431924 -48541610 1211687086
        2074217476 -1106670887 1634845329</internalNodes>
      <leafValues>
        -7.8018552064895630e-01 1.0721275210380554e-01</leafValues></_>
    <_>
      <internalNodes>
        0 -1 3131 -251694339 -207634346 -1874280229 -671480166
        -2080047025 -561070070 -700292144 -915909800</internalNodes>
      <leafValues>
        -7.0865857601165771e-01 2.3707063496112823e-01</leafValues></_>
    <_>
      <internalNodes>
        0 -1 2423 -310297289 -830308146 1745991772 1047425222
        -1316236644 -1475313479 -125306236 -111369856</internalNodes>
      <leafValues>
        -6.2939751148223877e-01 3.2860529422760010e-01</leafValues></_>
    <_>
      <internalNodes>
        0 -1 8003 -1431310613 1342111723 -805372549 -100700181 536542951
        -1914732801 1577018751 99614459</internalNodes>
      <leafValues>
        -4.3855485320091248e-01 4.4979217648506165e-01</leafValues></_>
    <_>
      <internalNodes>
        0 -1 640 -1425184799 1508463555 -2063446638 -127946410
        -527978216 -1605367797 -1711062318 -481842937</internalNodes>
      <leafValues>
        -4.5542022585868835e-01 4.5992073416709900e-01</leafValues></_></weakClassifiers></stage14>
</opencv_storage>
