<?xml version="1.0"?>
<opencv_storage>
<stage10>
  <maxWeakCount>6</maxWeakCount>
  <stageThreshold>-1.1203776597976685e+00</stageThreshold>
  <weakClassifiers>
    <_>
      <internalNodes>
        0 -1 768 -813564929 -141356935 -242002603 2073785037 -1467892805
        -545054584 -1693925473 -7618069</internalNodes>
      <leafValues>
        -7.6821649074554443e-01 2.5000000000000000e-01</leafValues></_>
    <_>
      <internalNodes>
        0 -1 8363 -638077025 -1575254010 -547290191 1872707353
        -1147694933 -913620350 -254872940 -574889474</internalNodes>
      <leafValues>
        -5.5660885572433472e-01 4.1556927561759949e-01</leafValues></_>
    <_>
      <internalNodes>
        0 -1 5211 -85999633 -703680489 324604154 605085404 2021607863
        -225753939 -1148456586 -461839692</internalNodes>
      <leafValues>
        -7.2618138790130615e-01 3.0811044573783875e-01</leafValues></_>
    <_>
      <internalNodes>
        0 -1 699 -2048955260 257514123 68257750 2014500318 -517389776
        -1842667391 195160927 1460757491</internalNodes>
      <leafValues>
        -7.6227551698684692e-01 2.7964133024215698e-01</leafValues></_>
    <_>
      <internalNodes>
        0 -1 5700 33552680 -774696637 -385858803 1046377996 349901801
        -648675325 948693224 1784731796</internalNodes>
      <leafValues>
        -7.9358410835266113e-01 3.0276009440422058e-01</leafValues></_>
    <_>
      <internalNodes>
        0 -1 901 -90781930 -645922742 1896038413 -1681817596 705921194
        -83689469 -392048109 525452059</internalNodes>
      <leafValues>
        -6.0025018453598022e-01 4.1577827930450439e-01</leafValues></_></weakClassifiers></stage10>
</opencv_storage>
