<?xml version="1.0"?>
<opencv_storage>
<stage19>
  <maxWeakCount>12</maxWeakCount>
  <stageThreshold>-1.7246141433715820e+00</stageThreshold>
  <weakClassifiers>
    <_>
      <internalNodes>
        0 -1 107352 -5.8806456625461578e-02</internalNodes>
      <leafValues>
        1. -8.2312923669815063e-01</leafValues></_>
    <_>
      <internalNodes>
        0 -1 152353 -5.4713271558284760e-02</internalNodes>
      <leafValues>
        -4.5088551938533783e-02 -6.1762851476669312e-01</leafValues></_>
    <_>
      <internalNodes>
        0 -1 27815 -9.2157680774107575e-04</internalNodes>
      <leafValues>
        3.2187813520431519e-01 -2.8613713383674622e-01</leafValues></_>
    <_>
      <internalNodes>
        0 -1 161551 6.5284632146358490e-03</internalNodes>
      <leafValues>
        1.4337858557701111e-01 -6.4279276132583618e-01</leafValues></_>
    <_>
      <internalNodes>
        0 -1 160851 9.8969636019319296e-04</internalNodes>
      <leafValues>
        -2.1186429262161255e-01 3.5427778959274292e-01</leafValues></_>
    <_>
      <internalNodes>
        0 -1 39325 4.5638896524906158e-02</internalNodes>
      <leafValues>
        -5.4501390457153320e-01 1.1914844065904617e-01</leafValues></_>
    <_>
      <internalNodes>
        0 -1 159519 -3.7947358214296401e-04</internalNodes>
      <leafValues>
        1.9691263139247894e-01 -3.5778295993804932e-01</leafValues></_>
    <_>
      <internalNodes>
        0 -1 154937 -4.0655322372913361e-03</internalNodes>
      <leafValues>
        -1. 7.5546056032180786e-02</leafValues></_>
    <_>
      <internalNodes>
        0 -1 108651 -4.1749273077584803e-04</internalNodes>
      <leafValues>
        3.3230447769165039e-01 -2.1256212890148163e-01</leafValues></_>
    <_>
      <internalNodes>
        0 -1 123747 8.4812175482511520e-03</internalNodes>
      <leafValues>
        -3.5312199592590332e-01 2.2488287091255188e-01</leafValues></_>
    <_>
      <internalNodes>
        0 -1 6315 -1.1475891806185246e-03</internalNodes>
      <leafValues>
        2.1812593936920166e-01 -3.3353236317634583e-01</leafValues></_>
    <_>
      <internalNodes>
        0 -1 121431 8.0393608659505844e-03</internalNodes>
      <leafValues>
        6.8380817770957947e-02 -9.0164709091186523e-01</leafValues></_></weakClassifiers></stage19>
</opencv_storage>
