<?xml version="1.0"?>
<opencv_storage>
<stage4>
  <maxWeakCount>6</maxWeakCount>
  <stageThreshold>-2.1805896759033203e+00</stageThreshold>
  <weakClassifiers>
    <_>
      <internalNodes>
        0 -1 4184 2.3260470479726791e-02</internalNodes>
      <leafValues>
        -9.1384613513946533e-01 -7.8651688992977142e-02</leafValues></_>
    <_>
      <internalNodes>
        0 -1 158609 -1.1998871341347694e-02</internalNodes>
      <leafValues>
        3.5348552465438843e-01 -7.2786211967468262e-01</leafValues></_>
    <_>
      <internalNodes>
        0 -1 27118 2.5389285758137703e-02</internalNodes>
      <leafValues>
        -4.3933176994323730e-01 4.3450790643692017e-01</leafValues></_>
    <_>
      <internalNodes>
        0 -1 108947 -3.3861745148897171e-02</internalNodes>
      <leafValues>
        3.7825289368629456e-01 -4.8418316245079041e-01</leafValues></_>
    <_>
      <internalNodes>
        0 -1 148217 3.6804345436394215e-03</internalNodes>
      <leafValues>
        -3.2962092757225037e-01 5.0617361068725586e-01</leafValues></_>
    <_>
      <internalNodes>
        0 -1 151806 4.2573697865009308e-03</internalNodes>
      <leafValues>
        -1.8913403153419495e-01 7.1425455808639526e-01</leafValues></_></weakClassifiers></stage4>
</opencv_storage>
