<?xml version="1.0"?>
<opencv_storage>
<stage16>
  <maxWeakCount>10</maxWeakCount>
  <stageThreshold>-1.6658103466033936e+00</stageThreshold>
  <weakClassifiers>
    <_>
      <internalNodes>
        0 -1 90393 1.6980383545160294e-02</internalNodes>
      <leafValues>
        -8.5936343669891357e-01 -3.2283464074134827e-01</leafValues></_>
    <_>
      <internalNodes>
        0 -1 161207 -3.7836590781807899e-03</internalNodes>
      <leafValues>
        -1.7810149583965540e-03 -5.6989854574203491e-01</leafValues></_>
    <_>
      <internalNodes>
        0 -1 139130 9.7860833629965782e-03</internalNodes>
      <leafValues>
        -2.2873990237712860e-01 3.8287723064422607e-01</leafValues></_>
    <_>
      <internalNodes>
        0 -1 18654 2.0213525742292404e-02</internalNodes>
      <leafValues>
        -2.6968365907669067e-01 2.7100634574890137e-01</leafValues></_>
    <_>
      <internalNodes>
        0 -1 12039 4.2352741584181786e-03</internalNodes>
      <leafValues>
        7.6700635254383087e-02 -9.5407086610794067e-01</leafValues></_>
    <_>
      <internalNodes>
        0 -1 49640 3.5318732261657715e-03</internalNodes>
      <leafValues>
        -1.9880913197994232e-01 3.8057464361190796e-01</leafValues></_>
    <_>
      <internalNodes>
        0 -1 112248 -9.5498152077198029e-03</internalNodes>
      <leafValues>
        -7.5779527425765991e-01 1.0015938431024551e-01</leafValues></_>
    <_>
      <internalNodes>
        0 -1 49541 -1.9254388753324747e-03</internalNodes>
      <leafValues>
        -4.8400199413299561e-01 1.5214020013809204e-01</leafValues></_>
    <_>
      <internalNodes>
        0 -1 4582 -1.2598598375916481e-02</internalNodes>
      <leafValues>
        6.2958478927612305e-01 -1.0990909487009048e-01</leafValues></_>
    <_>
      <internalNodes>
        0 -1 31419 2.0903609693050385e-02</internalNodes>
      <leafValues>
        -3.1588041782379150e-01 2.6611825823783875e-01</leafValues></_></weakClassifiers></stage16>
</opencv_storage>
